{"learner":{"attributes":{"best_iteration":"46","best_score":"0.580099891422367"},"feature_names":[],"feature_types":[],"gradient_booster":{"model":{"cats":{"enc":[],"feature_segments":[],"sorted_idx":[]},"gbtree_model_param":{"num_parallel_tree":"1","num_trees":"67"},"iteration_indptr":[0,1,2,3,4,5,6,7,8,9,10,11,12,13,14,15,16,17,18,19,20,21,22,23,24,25,26,27,28,29,30,31,32,33,34,35,36,37,38,39,40,41,42,43,44,45,46,47,48,49,50,51,52,53,54,55,56,57,58,59,60,61,62,63,64,65,66,67],"tree_info":[0,0,0,0,0,0,0,0,0,0,0,0,0,0,0,0,0,0,0,0,0,0,0,0,0,0,0,0,0,0,0,0,0,0,0,0,0,0,0,0,0,0,0,0,0,0,0,0,0,0,0,0,0,0,0,0,0,0,0,0,0,0,0,0,0,0,0],"trees":[{"base_weights":[3.2888425E-3,-1.0572409E-1,1.737976E-1,-1.0742696E-2,-4.0713298E-1,-5.1881753E-2,4.328924E-1,3.5402828E-1,-6.0419075E-2,-5.855471E-1,2.10724E-1,-2.2371253E-1,4.482592E-1,5.2399063E-1,-5.2749462E-2,4.49175E-3,5.667915E-2,-5.305347E-2,-1.2856266E-3,-3.833122E-2,-1.8013436E-3,4.6151537E-2,-1.5796978E-2,-7.472146E-3,-6.340631E-2,3.720143E-3,4.7550734E-2,-2.9083306E-2,2.9237097E-2,2.89771E-2,-1.6484642E-2],"categories":[],"categories_nodes":[],"categories_segments":[],"categories_sizes":[],"default_left":[0,0,0,0,0,0,0,0,0,0,0,0,0,0,0,0,0,0,0,0,0,0,0,0,0,0,0,0,0,0,0],"id":0,"left_children":[1,3,5,7,9,11,13,15,17,19,21,23,25,27,29,-1,-1,-1,-1,-1,-1,-1,-1,-1,-1,-1,-1,-1,-1,-1,-1],"loss_changes":[1.3787655E1,1.2949791E1,1.6937296E1,6.2747383E0,1.2072592E1,1.3464112E1,5.990309E0,8.447241E0,1.0550795E1,8.36816E0,9.679E0,8.839884E0,7.4657497E0,7.9692783E0,4.0779634E0,0E0,0E0,0E0,0E0,0E0,0E0,0E0,0E0,0E0,0E0,0E0,0E0,0E0,0E0,0E0,0E0],"parents":[2147483647,0,0,1,1,2,2,3,3,4,4,5,5,6,6,7,7,8,8,9,9,10,10,11,11,12,12,13,13,14,14],"right_children":[2,4,6,8,10,12,14,16,18,20,22,24,26,28,30,-1,-1,-1,-1,-1,-1,-1,-1,-1,-1,-1,-1,-1,-1,-1,-1],"split_conditions":[2.0397024E-2,3.8297478E-2,-1.2071221E-2,-3.701501E-2,1.2788856E-1,1.26472E0,6.1328646E-2,3.226803E-2,2.8685153E-1,1.2541357E0,7.581471E-1,1.2776661E0,-6.454185E-2,4.411629E-1,9.944559E-2,4.49175E-3,5.667915E-2,-5.305347E-2,-1.2856266E-3,-3.833122E-2,-1.8013436E-3,4.6151537E-2,-1.5796978E-2,-7.472146E-3,-6.340631E-2,3.720143E-3,4.7550734E-2,-2.9083306E-2,2.9237097E-2,2.89771E-2,-1.6484642E-2],"split_indices":[5,4,7,6,3,9,4,4,0,9,0,8,7,9,3,0,0,0,0,0,0,0,0,0,0,0,0,0,0,0,0],"split_type":[0,0,0,0,0,0,0,0,0,0,0,0,0,0,0,0,0,0,0,0,0,0,0,0,0,0,0,0,0,0,0],"sum_hessian":[7.397753E2,4.514961E2,2.882792E2,3.4409796E2,1.0739813E2,1.5450258E2,1.3377663E2,4.0509823E1,3.0358813E2,8.337487E1,2.4023268E1,1.1540589E2,3.909669E1,1.1257962E2,2.1197E1,3.1088934E1,9.420889E0,9.185367E0,2.9440277E2,6.241339E1,2.0961477E1,9.891933E0,1.4131333E1,1.0881127E2,6.594622E0,2.3081179E1,1.601551E1,5.4170113E0,1.0716261E2,6.123578E0,1.5073422E1],"tree_param":{"num_deleted":"0","num_feature":"31","num_nodes":"31","size_leaf_vector":"1"}},{"base_weights":[-1.8081214E-2,1.7961506E-2,-4.5242396E-1,-1.0452178E-1,2.1567596E-1,-2.5051978E-1,-1.0562876E0,-1.1787505E-2,-3.40028E-1,1.8037961E-1,9.758427E-1,-5.094063E-1,3.0166237E-2,-6.5255664E-2,-2.6596278E-2,2.2587483E-3,-2.7450262E-2,-2.197674E-2,1.9563055E-2,1.0722572E-2,-2.7011616E-2,6.880971E-2,2.0864492E-2,-4.0301044E-2,1.0935315E-2],"categories":[],"categories_nodes":[],"categories_segments":[],"categories_sizes":[],"default_left":[0,0,0,0,0,0,0,0,0,0,0,0,0,0,0,0,0,0,0,0,0,0,0,0,0],"id":1,"left_children":[1,3,5,7,9,11,13,15,17,19,21,23,-1,-1,-1,-1,-1,-1,-1,-1,-1,-1,-1,-1,-1],"loss_changes":[1.1592342E1,1.65925E1,6.653E0,9.237883E0,6.855427E0,9.996288E0,1.1201725E0,9.347609E0,8.869135E0,6.294792E0,1.9753094E0,7.557252E0,0E0,0E0,0E0,0E0,0E0,0E0,0E0,0E0,0E0,0E0,0E0,0E0,0E0],"parents":[2147483647,0,0,1,1,2,2,3,3,4,4,5,5,6,6,7,7,8,8,9,9,10,10,11,11],"right_children":[2,4,6,8,10,12,14,16,18,20,22,24,-1,-1,-1,-1,-1,-1,-1,-1,-1,-1,-1,-1,-1],"split_conditions":[6.6233724E-2,1.9718014E-2,2.3827082E-2,5.0279353E-2,6.9894886E-1,-3.1369522E-2,2.2217816E-2,4.170227E-2,8.1193894E-1,4.788426E-2,7.4764574E-1,1.2421366E0,3.0166237E-2,-6.5255664E-2,-2.6596278E-2,2.2587483E-3,-2.7450262E-2,-2.197674E-2,1.9563055E-2,1.0722572E-2,-2.7011616E-2,6.880971E-2,2.0864492E-2,-4.0301044E-2,1.0935315E-2],"split_indices":[4,18,10,12,0,2,18,4,0,10,0,9,0,0,0,0,0,0,0,0,0,0,0,0,0],"split_type":[0,0,0,0,0,0,0,0,0,0,0,0,0,0,0,0,0,0,0,0,0,0,0,0,0],"sum_hessian":[7.389742E2,6.832364E2,5.5737816E1,4.2217322E2,2.610632E2,4.2831722E1,1.2906094E1,3.036545E2,1.18518684E2,2.5066167E2,1.0401528E1,3.3176094E1,9.655629E0,7.7428994E0,5.163194E0,2.7537207E2,2.8282446E1,1.0467454E2,1.3844145E1,2.4001569E2,1.0645968E1,5.2061114E0,5.1954174E0,2.349701E1,9.679084E0],"tree_param":{"num_deleted":"0","num_feature":"31","num_nodes":"25","size_leaf_vector":"1"}},{"base_weights":[-1.9908644E-2,-1.1988621E-1,1.1387275E-1,1.7506067E-1,-1.991006E-1,1.0286051E-2,3.7003872E-1,-6.458111E-3,6.091875E-1,-7.520423E-1,-1.5521988E-1,-9.790905E-2,3.570594E-1,5.5444276E-1,-1.3733844E-1,7.7109556E-3,-4.1099627E-2,5.1301558E-2,1.5351208E-2,-5.636975E-2,7.8676305E-5,-1.6417311E-3,-2.0662945E-2,-1.4051481E-3,-2.412846E-2,-9.396887E-3,2.8794823E-2,5.4597523E-2,1.925443E-2,3.27886E-2,-2.5660122E-2],"categories":[],"categories_nodes":[],"categories_segments":[],"categories_sizes":[],"default_left":[0,0,0,0,0,0,0,0,0,0,0,0,0,0,0,0,0,0,0,0,0,0,0,0,0,0,0,0,0,0,0],"id":2,"left_children":[1,3,5,7,9,11,13,15,17,19,21,23,25,27,29,-1,-1,-1,-1,-1,-1,-1,-1,-1,-1,-1,-1,-1,-1,-1,-1],"loss_changes":[9.999389E0,1.0029147E1,8.482888E0,7.1824055E0,8.076293E0,8.617995E0,8.689645E0,8.673795E0,3.0692854E0,6.9509926E0,9.905838E0,4.689416E0,6.6221704E0,5.7439766E0,7.890969E0,0E0,0E0,0E0,0E0,0E0,0E0,0E0,0E0,0E0,0E0,0E0,0E0,0E0,0E0,0E0,0E0],"parents":[2147483647,0,0,1,1,2,2,3,3,4,4,5,5,6,6,7,7,8,8,9,9,10,10,11,11,12,12,13,13,14,14],"right_children":[2,4,6,8,10,12,14,16,18,20,22,24,26,28,30,-1,-1,-1,-1,-1,-1,-1,-1,-1,-1,-1,-1,-1,-1,-1,-1],"split_conditions":[1.9718014E-2,-2.4825122E-2,3.5010926E-2,5.056528E-1,3.3277443E-1,1.26472E0,2.44392E-2,-1.9445557E-2,-4.03189E-2,1.6719176E-2,5.674857E-2,6.728907E-2,2.1769373E-2,2.1850523E-2,4.275333E-2,7.7109556E-3,-4.1099627E-2,5.1301558E-2,1.5351208E-2,-5.636975E-2,7.8676305E-5,-1.6417311E-3,-2.0662945E-2,-1.4051481E-3,-2.412846E-2,-9.396887E-3,2.8794823E-2,5.4597523E-2,1.925443E-2,3.27886E-2,-2.5660122E-2],"split_indices":[5,14,3,0,0,9,5,2,14,5,3,4,5,2,4,0,0,0,0,0,0,0,0,0,0,0,0,0,0,0,0],"split_type":[0,0,0,0,0,0,0,0,0,0,0,0,0,0,0,0,0,0,0,0,0,0,0,0,0,0,0,0,0,0,0],"sum_hessian":[7.455894E2,4.267639E2,3.188255E2,9.0094826E1,3.3666907E2,2.2776396E2,9.106153E1,6.422567E1,2.586916E1,2.3566673E1,3.131024E2,1.7414688E2,5.3617085E1,6.671976E1,2.4341776E1,5.4332027E1,9.89364E0,9.8647785E0,1.6004381E1,1.5400286E1,8.166387E0,2.1313966E2,9.996272E1,1.4830614E2,2.5840755E1,1.5401647E1,3.821544E1,1.4679921E1,5.2039837E1,7.5872397E0,1.6754536E1],"tree_param":{"num_deleted":"0","num_feature":"31","num_nodes":"31","size_leaf_vector":"1"}},{"base_weights":[1.5816526E-2,-5.3088135E-1,4.4951614E-2,1.2211097E-1,-8.2081383E-1,-1.9962291E-1,8.157621E-2,2.2826431E-2,-1.0848496E-2,-5.0228657E-3,-1.0015802E0,2.4578328E-1,-5.169325E-1,2.940736E-4,1.97761E-1,-2.8431734E-2,-6.1859358E-2,-3.44991E-2,2.8575568E-2,-4.312093E-2,-1.72027E-2,2.9016692E-2,-2.85771E-3,-1.5370676E-3,1.924005E-2],"categories":[],"categories_nodes":[],"categories_segments":[],"categories_sizes":[],"default_left":[0,0,0,0,0,0,0,0,0,0,0,0,0,0,0,0,0,0,0,0,0,0,0,0,0],"id":3,"left_children":[1,3,5,7,9,11,13,-1,-1,-1,15,17,19,21,23,-1,-1,-1,-1,-1,-1,-1,-1,-1,-1],"loss_changes":[1.1910693E1,7.263708E0,6.371086E0,1.5170254E0,3.3282967E0,1.3227242E1,5.83384E0,0E0,0E0,0E0,1.4323368E0,1.2354778E1,2.955511E0,1.217821E1,1.0879535E1,0E0,0E0,0E0,0E0,0E0,0E0,0E0,0E0,0E0,0E0],"parents":[2147483647,0,0,1,1,2,2,3,3,4,4,5,5,6,6,10,10,11,11,12,12,13,13,14,14],"right_children":[2,4,6,8,10,12,14,-1,-1,-1,16,18,20,22,24,-1,-1,-1,-1,-1,-1,-1,-1,-1,-1],"split_conditions":[4.1105863E-1,-3.6738813E-2,3.0702356E-1,-7.8397006E-2,-3.2791626E-2,-3.9072428E-2,1.9718014E-2,2.2826431E-2,-1.0848496E-2,-5.0228657E-3,3.624691E-1,-1.23093255E-1,7.666161E-1,-3.829526E-2,-8.518552E-3,-2.8431734E-2,-6.1859358E-2,-3.44991E-2,2.8575568E-2,-4.312093E-2,-1.72027E-2,2.9016692E-2,-2.85771E-3,-1.5370676E-3,1.924005E-2],"split_indices":[9,7,0,12,12,1,18,0,0,0,8,2,8,6,2,0,0,0,0,0,0,0,0,0,0],"split_type":[0,0,0,0,0,0,0,0,0,0,0,0,0,0,0,0,0,0,0,0,0,0,0,0,0],"sum_hessian":[7.4528076E2,3.68372E1,7.0844354E2,1.1504758E1,2.5332443E1,9.1691124E1,6.1675244E2,5.6178236E0,5.8869348E0,5.393803E0,1.9938639E1,3.8239666E1,5.3451454E1,3.6347217E2,2.5328029E2,8.229605E0,1.1709035E1,9.585051E0,2.8654617E1,1.649624E1,3.6955215E1,3.1934656E1,3.315375E2,1.1438026E2,1.3890002E2],"tree_param":{"num_deleted":"0","num_feature":"31","num_nodes":"25","size_leaf_vector":"1"}},{"base_weights":[3.9208293E-4,3.608141E-2,-4.2435643E-1,-5.635927E-2,2.0268929E-1,-6.167268E-1,8.250228E-2,3.0356774E-1,-1.1488523E-1,1.6689454E-1,5.802813E-2,-7.9004574E-1,-1.0253879E-1,2.145698E-2,-2.4269301E-2,-3.549104E-2,2.0396264E-2,-7.6874695E-3,3.3252846E-2,2.8870588E-3,2.4520075E-2,-1.5522191E-2,-5.401467E-2,3.2890964E-2,-4.2841807E-2],"categories":[],"categories_nodes":[],"categories_segments":[],"categories_sizes":[],"default_left":[0,0,0,0,0,0,0,0,0,0,0,0,0,0,0,0,0,0,0,0,0,0,0,0,0],"id":4,"left_children":[1,3,5,7,9,11,13,15,17,19,-1,21,23,-1,-1,-1,-1,-1,-1,-1,-1,-1,-1,-1,-1],"loss_changes":[1.1323463E1,1.0624033E1,5.6963778E0,9.386929E0,8.24465E0,3.669855E0,3.5176182E0,6.8852663E0,1.1699303E1,8.390477E0,0E0,4.0257225E0,7.308177E0,0E0,0E0,0E0,0E0,0E0,0E0,0E0,0E0,0E0,0E0,0E0,0E0],"parents":[2147483647,0,0,1,1,2,2,3,3,4,4,5,5,6,6,7,7,8,8,9,9,11,11,12,12],"right_children":[2,4,6,8,10,12,14,16,18,20,-1,22,24,-1,-1,-1,-1,-1,-1,-1,-1,-1,-1,-1,-1],"split_conditions":[6.6233724E-2,2.0397024E-2,1.2421366E0,-3.701501E-2,7.1282035E-1,6.9894886E-1,-6.9067016E-2,4.5829412E-1,1.4593437E-1,1.26472E0,5.802813E-2,2.3420478E-1,3.801291E-2,2.145698E-2,-2.4269301E-2,-3.549104E-2,2.0396264E-2,-7.6874695E-3,3.3252846E-2,2.8870588E-3,2.4520075E-2,-1.5522191E-2,-5.401467E-2,3.2890964E-2,-4.2841807E-2],"split_indices":[4,18,9,6,0,0,3,8,3,9,0,0,1,0,0,0,0,0,0,0,0,0,0,0,0],"split_type":[0,0,0,0,0,0,0,0,0,0,0,0,0,0,0,0,0,0,0,0,0,0,0,0,0],"sum_hessian":[7.4497003E2,6.8807025E2,5.6899784E1,4.429601E2,2.4511017E2,4.1088512E1,1.581127E1,6.136801E1,3.815921E2,2.3741254E2,7.697632E0,3.0328949E1,1.0759563E1,9.96996E0,5.8413095E0,5.187898E0,5.6180115E1,3.642448E2,1.7347279E1,1.7839827E2,5.9014256E1,1.2214851E1,1.8114098E1,5.421952E0,5.3376117E0],"tree_param":{"num_deleted":"0","num_feature":"31","num_nodes":"25","size_leaf_vector":"1"}},{"base_weights":[8.126911E-3,3.93288E-2,-3.508898E-1,-3.5436552E-2,2.365362E-1,-2.0099634E-1,-5.1956963E-2,-5.42883E-1,-6.9674957E-3,9.2278585E-2,6.974268E-1,1.8640517E-3,-6.9986683E-1,5.1112734E-3,-3.8977552E-2,9.152362E-3,-4.618933E-3,2.3000753E-2,-4.313528E-3,9.437257E-3,4.4814758E-2,-1.1477E-2,3.0091165E-2,-6.137197E-2,-3.5258462E-3],"categories":[],"categories_nodes":[],"categories_segments":[],"categories_sizes":[],"default_left":[0,0,0,0,0,0,0,0,0,0,0,0,0,0,0,0,0,0,0,0,0,0,0,0,0],"id":5,"left_children":[1,3,5,7,9,11,-1,13,15,17,19,21,23,-1,-1,-1,-1,-1,-1,-1,-1,-1,-1,-1,-1],"loss_changes":[8.385125E0,1.0159096E1,5.9660673E0,7.220423E0,1.2527317E1,5.100896E0,0E0,4.1334987E0,7.7179747E0,9.585956E0,4.382452E0,5.2500854E0,4.7510514E0,0E0,0E0,0E0,0E0,0E0,0E0,0E0,0E0,0E0,0E0,0E0,0E0],"parents":[2147483647,0,0,1,1,2,2,3,3,4,4,5,5,7,7,8,8,9,9,10,10,11,11,12,12],"right_children":[2,4,6,8,10,12,-1,14,16,18,20,22,24,-1,-1,-1,-1,-1,-1,-1,-1,-1,-1,-1,-1],"split_conditions":[6.6233724E-2,2.1854859E-2,3.413129E-2,4.1105863E-1,1.26472E0,4.162737E-2,-5.1956963E-2,-3.171218E-2,1.4767439E-2,6.658137E-1,-6.454185E-2,1.2421366E0,2.2258425E-2,5.1112734E-3,-3.8977552E-2,9.152362E-3,-4.618933E-3,2.3000753E-2,-4.313528E-3,9.437257E-3,4.4814758E-2,-1.1477E-2,3.0091165E-2,-6.137197E-2,-3.5258462E-3],"split_indices":[4,5,5,9,9,6,0,3,5,9,7,9,5,0,0,0,0,0,0,0,0,0,0,0,0],"split_type":[0,0,0,0,0,0,0,0,0,0,0,0,0,0,0,0,0,0,0,0,0,0,0,0,0],"sum_hessian":[7.463064E2,6.87451E2,5.8855423E1,4.990654E2,1.8838557E2,4.9390694E1,9.464732E0,2.5551619E1,4.735138E2,1.4439159E2,4.399399E1,3.5820805E1,1.3569887E1,7.0105E0,1.8541119E1,1.4648488E2,3.270289E2,4.667802E1,9.771357E1,1.2913046E1,3.1080946E1,2.6295895E1,9.524911E0,6.864866E0,6.705022E0],"tree_param":{"num_deleted":"0","num_feature":"31","num_nodes":"25","size_leaf_vector":"1"}},{"base_weights":[-2.5488973E-2,4.5337614E-2,-1.518299E-1,-2.352823E-1,1.118555E-1,-2.691594E-1,1.597586E-1,-1.2392035E-1,-6.932651E-2,-2.379285E-1,1.5948252E-1,-3.5427886E-1,2.1355048E-1,6.2956876E-1,-7.952066E-2,-2.7903795E-2,8.121212E-4,1.8070145E-2,-1.763436E-2,1.7207323E-2,3.6044183E-4,-3.100068E-2,-8.4224185E-3,5.359556E-2,-1.2272678E-3,5.654428E-2,1.8254599E-2,1.1641323E-2,-3.217658E-2],"categories":[],"categories_nodes":[],"categories_segments":[],"categories_sizes":[],"default_left":[0,0,0,0,0,0,0,0,0,0,0,0,0,0,0,0,0,0,0,0,0,0,0,0,0,0,0,0,0],"id":6,"left_children":[1,3,5,7,9,11,13,15,-1,17,19,21,23,25,27,-1,-1,-1,-1,-1,-1,-1,-1,-1,-1,-1,-1,-1,-1],"loss_changes":[6.651755E0,8.922714E0,9.803455E0,1.1577943E1,6.4676404E0,8.059956E0,8.330582E0,5.161007E0,0E0,3.336354E0,9.566567E0,8.0716E0,6.1070757E0,2.8975887E0,8.903827E0,0E0,0E0,0E0,0E0,0E0,0E0,0E0,0E0,0E0,0E0,0E0,0E0,0E0,0E0],"parents":[2147483647,0,0,1,1,2,2,3,3,4,4,5,5,6,6,7,7,9,9,10,10,11,11,12,12,13,13,14,14],"right_children":[2,4,6,8,10,12,14,16,-1,18,20,22,24,26,28,-1,-1,-1,-1,-1,-1,-1,-1,-1,-1,-1,-1,-1,-1],"split_conditions":[3.9465677E-2,1.96609E-2,1.2421366E0,5.674857E-2,5.022371E-1,1.4593437E-1,1.4072561E0,6.787512E-1,-6.932651E-2,2.2267329E-2,9.040886E-1,4.7548886E-2,4.9563628E-2,1.1734014E0,2.7962154E-2,-2.7903795E-2,8.121212E-4,1.8070145E-2,-1.763436E-2,1.7207323E-2,3.6044183E-4,-3.100068E-2,-8.4224185E-3,5.359556E-2,-1.2272678E-3,5.654428E-2,1.8254599E-2,1.1641323E-2,-3.217658E-2],"split_indices":[4,4,9,3,9,3,9,9,0,4,9,4,4,8,2,0,0,0,0,0,0,0,0,0,0,0,0,0,0],"split_type":[0,0,0,0,0,0,0,0,0,0,0,0,0,0,0,0,0,0,0,0,0,0,0,0,0,0,0,0,0],"sum_hessian":[7.415851E2,4.7560342E2,2.6598163E2,9.064807E1,3.8495535E2,1.933219E2,7.265973E1,8.366287E1,6.985195E0,4.565545E1,3.3929993E2,1.645685E2,2.87534E1,2.3968313E1,4.8691414E1,1.9690313E1,6.397256E1,6.9917173E0,3.866373E1,1.5277185E2,1.8652808E2,6.676259E1,9.7805916E1,5.483345E0,2.3270056E1,7.14638E0,1.6821934E1,3.1714977E1,1.6976439E1],"tree_param":{"num_deleted":"0","num_feature":"31","num_nodes":"29","size_leaf_vector":"1"}},{"base_weights":[7.737862E-3,-5.040014E-1,3.2297317E-2,-2.0571455E-1,-6.366449E-2,-1.3503268E-1,8.9037925E-2,-3.2698054E-2,4.909636E-2,1.6978991E-1,-2.6950392E-1,5.1416475E-2,7.312621E-2,-1.8613383E-2,2.0880181E-2,1.8316327E-2,-2.7121259E-2,-2.8069064E-2,-1.6594356E-3,-7.064745E-4,1.064603E-2],"categories":[],"categories_nodes":[],"categories_segments":[],"categories_sizes":[],"default_left":[0,0,0,0,0,0,0,0,0,0,0,0,0,0,0,0,0,0,0,0,0],"id":7,"left_children":[1,3,5,7,-1,9,11,-1,13,15,17,-1,19,-1,-1,-1,-1,-1,-1,-1,-1],"loss_changes":[9.443837E0,7.6344395E0,6.8167615E0,3.000575E0,0E0,7.501301E0,7.9330716E0,0E0,2.8728168E0,8.07806E0,8.713387E0,0E0,6.4431586E0,0E0,0E0,0E0,0E0,0E0,0E0,0E0,0E0],"parents":[2147483647,0,0,1,1,2,2,3,3,5,5,6,6,8,8,9,9,10,10,12,12],"right_children":[2,4,6,8,-1,10,12,-1,14,16,18,-1,20,-1,-1,-1,-1,-1,-1,-1,-1],"split_conditions":[4.1105863E-1,4.198567E-2,3.8670012E-1,1.5926916E-2,-6.366449E-2,-3.9072428E-2,-8.052946E-2,-3.2698054E-2,-2.158305E-2,3.3277443E-1,3.0964082E-1,5.1416475E-2,1.9948978E-2,-1.8613383E-2,2.0880181E-2,1.8316327E-2,-2.7121259E-2,-2.8069064E-2,-1.6594356E-3,-7.064745E-4,1.064603E-2],"split_indices":[9,7,0,18,0,1,6,0,6,0,0,0,18,0,0,0,0,0,0,0,0],"split_type":[0,0,0,0,0,0,0,0,0,0,0,0,0,0,0,0,0,0,0,0,0],"sum_hessian":[7.491219E2,3.341157E1,7.1571027E2,2.4989468E1,8.422105E0,1.8088737E2,5.3482294E2,8.489262E0,1.6500206E1,5.5290634E1,1.2559675E2,7.8491473E0,5.2697375E2,7.6932597E0,8.806946E0,4.3713493E1,1.157714E1,5.5577E1,7.0019745E1,3.250104E2,2.0196335E2],"tree_param":{"num_deleted":"0","num_feature":"31","num_nodes":"21","size_leaf_vector":"1"}},{"base_weights":[-1.3715502E-2,1.3373959E-2,-3.308913E-1,2.150925E-4,4.5391332E-2,-6.5925306E-1,8.557505E-2,3.915763E-1,-2.2243243E-2,-8.979243E-1,-3.140718E-1,3.636929E-2,-1.9076443E-1,-1.06512895E-2,2.62492E-2,-1.9045096E-3,2.731773E-2,-1.7014286E-2,-6.2430423E-2,-3.6686223E-2,1.599558E-2,1.2501143E-3,-3.3650517E-2],"categories":[],"categories_nodes":[],"categories_segments":[],"categories_sizes":[],"default_left":[0,0,0,0,0,0,0,0,0,0,0,0,0,0,0,0,0,0,0,0,0,0,0],"id":8,"left_children":[1,3,5,7,-1,9,11,13,15,17,19,-1,21,-1,-1,-1,-1,-1,-1,-1,-1,-1,-1],"loss_changes":[6.456512E0,8.15408E0,8.14225E0,6.0184813E0,0E0,2.4511786E0,4.9188976E0,3.1092615E0,5.856006E0,3.305544E0,4.2520723E0,0E0,2.0596244E0,0E0,0E0,0E0,0E0,0E0,0E0,0E0,0E0,0E0,0E0],"parents":[2147483647,0,0,1,1,2,2,3,3,5,5,6,6,7,7,8,8,9,9,10,10,12,12],"right_children":[2,4,6,8,-1,10,12,14,16,18,20,-1,22,-1,-1,-1,-1,-1,-1,-1,-1,-1,-1],"split_conditions":[6.6233724E-2,3.226568E-2,1.0539467E0,-7.122379E-2,4.5391332E-2,8.021973E-2,-2.0501131E-1,-1.4940801E-1,8.661986E-2,7.0041686E-1,8.2447886E-1,3.636929E-2,3.0349668E-2,-1.06512895E-2,2.62492E-2,-1.9045096E-3,2.731773E-2,-1.7014286E-2,-6.2430423E-2,-3.6686223E-2,1.599558E-2,1.2501143E-3,-3.3650517E-2],"split_indices":[4,5,8,14,0,4,3,3,2,8,8,0,5,0,0,0,0,0,0,0,0,0,0],"split_type":[0,0,0,0,0,0,0,0,0,0,0,0,0,0,0,0,0,0,0,0,0,0,0],"sum_hessian":[7.4993054E2,6.918027E2,5.8127884E1,6.8275836E2,9.044256E0,3.217591E1,2.5951975E1,3.6161896E1,6.465965E2,1.8076103E1,1.4099808E1,7.3196177E0,1.8632357E1,6.4289913E0,2.9732904E1,6.2997205E2,1.662445E1,7.7395096E0,1.0336594E1,8.389333E0,5.7104754E0,1.3527866E1,5.1044908E0],"tree_param":{"num_deleted":"0","num_feature":"31","num_nodes":"23","size_leaf_vector":"1"}},{"base_weights":[1.1486472E-2,8.438759E-2,-1.17493376E-1,-1.8911673E-1,1.5184605E-1,-4.5309362E-1,-5.206851E-2,-7.562841E-2,-6.294319E-2,-3.7248456E-1,1.8469049E-1,2.4743743E-2,-7.5554544E-1,-1.845603E-1,1.8546826E-1,-2.8742129E-2,3.242092E-3,8.802018E-3,-5.414131E-2,-1.8223995E-2,1.0702973E-2,-2.2201907E-2,2.0622633E-2,-1.4112781E-2,-4.8532028E-2,-1.3385087E-2,6.899107E-3,4.285541E-2,3.7134872E-3],"categories":[],"categories_nodes":[],"categories_segments":[],"categories_sizes":[],"default_left":[0,0,0,0,0,0,0,0,0,0,0,0,0,0,0,0,0,0,0,0,0,0,0,0,0,0,0,0,0],"id":9,"left_children":[1,3,5,7,9,11,13,15,-1,17,19,21,23,25,27,-1,-1,-1,-1,-1,-1,-1,-1,-1,-1,-1,-1,-1,-1],"loss_changes":[6.9797E0,8.777018E0,5.8627424E0,1.1347841E1,6.62844E0,6.3209534E0,7.130529E0,6.0876055E0,0E0,9.068548E0,5.870063E0,3.4312446E0,2.4478378E0,3.931992E0,6.0033712E0,0E0,0E0,0E0,0E0,0E0,0E0,0E0,0E0,0E0,0E0,0E0,0E0,0E0,0E0],"parents":[2147483647,0,0,1,1,2,2,3,3,4,4,5,5,6,6,7,7,9,9,10,10,11,11,12,12,13,13,14,14],"right_children":[2,4,6,8,10,12,14,16,-1,18,20,22,24,26,28,-1,-1,-1,-1,-1,-1,-1,-1,-1,-1,-1,-1,-1,-1],"split_conditions":[3.9465677E-2,1.96609E-2,1.7085733E-2,5.7789057E-2,3.0112147E-1,1.4551045E-2,1.1319312E0,-2.0507887E-2,-6.294319E-2,-2.532398E-2,4.3693775E-1,8.636934E-1,3.0053032E-3,5.2929297E-2,1.1734014E0,-2.8742129E-2,3.242092E-3,8.802018E-3,-5.414131E-2,-1.8223995E-2,1.0702973E-2,-2.2201907E-2,2.0622633E-2,-1.4112781E-2,-4.8532028E-2,-1.3385087E-2,6.899107E-3,4.285541E-2,3.7134872E-3],"split_indices":[4,4,5,3,0,5,8,14,0,14,8,8,7,2,8,0,0,0,0,0,0,0,0,0,0,0,0,0,0],"split_type":[0,0,0,0,0,0,0,0,0,0,0,0,0,0,0,0,0,0,0,0,0,0,0,0,0,0,0,0,0],"sum_hessian":[7.4024756E2,4.7315805E2,2.6708948E2,9.325608E1,3.7990198E2,4.2607372E1,2.2448212E2,8.5279564E1,7.9765196E0,2.1784946E1,3.5811703E2,1.6871162E1,2.573621E1,1.442476E2,8.023451E1,1.8047756E1,6.7231804E1,1.2717039E1,9.067907E0,1.760021E1,3.405168E2,7.5713263E0,9.299837E0,8.764113E0,1.6972097E1,1.14820465E2,2.942714E1,1.0444106E1,6.9790405E1],"tree_param":{"num_deleted":"0","num_feature":"31","num_nodes":"29","size_leaf_vector":"1"}},{"base_weights":[3.3990417E-2,-4.235556E-1,6.228021E-2,-6.621292E-1,2.4794962E-2,1.0047686E-5,2.2459456E-1,-4.9432588E-1,-6.775585E-2,-1.4723098E-1,8.167299E-2,2.0451652E-2,4.4539702E-1,-5.972671E-2,-1.2916773E-2,-5.882017E-3,-4.619068E-2,2.2553148E-2,7.0932234E-4,2.1227596E-2,-1.0714396E-2,-1.4614305E-2,2.7157733E-2],"categories":[],"categories_nodes":[],"categories_segments":[],"categories_sizes":[],"default_left":[0,0,0,0,0,0,0,0,0,0,0,0,0,0,0,0,0,0,0,0,0,0,0],"id":10,"left_children":[1,3,5,7,-1,9,11,13,-1,15,17,19,21,-1,-1,-1,-1,-1,-1,-1,-1,-1,-1],"loss_changes":[9.581093E0,9.785046E0,7.0352483E0,3.360303E0,0E0,6.0729103E0,8.690124E0,4.5620337E0,0E0,4.0318613E0,8.092401E0,9.702775E0,6.841259E0,0E0,0E0,0E0,0E0,0E0,0E0,0E0,0E0,0E0,0E0],"parents":[2147483647,0,0,1,1,2,2,3,3,5,5,6,6,7,7,9,9,10,10,11,11,12,12],"right_children":[2,4,6,8,-1,10,12,14,-1,16,18,20,22,-1,-1,-1,-1,-1,-1,-1,-1,-1,-1],"split_conditions":[-1.5430963E-1,1.3607299E0,2.1854859E-2,4.25055E-1,2.4794962E-2,7.5447917E-1,-7.918965E-3,-1.6831864E-1,-6.775585E-2,2.1590905E-2,8.5321224E-1,2.44392E-2,-3.1447608E-2,-5.972671E-2,-1.2916773E-2,-5.882017E-3,-4.619068E-2,2.2553148E-2,7.0932234E-4,2.1227596E-2,-1.0714396E-2,-1.4614305E-2,2.7157733E-2],"split_indices":[12,9,18,13,0,9,7,7,0,18,9,18,6,0,0,0,0,0,0,0,0,0,0],"split_type":[0,0,0,0,0,0,0,0,0,0,0,0,0,0,0,0,0,0,0,0,0,0,0],"sum_hessian":[7.371643E2,4.2110855E1,6.9505347E2,3.3657513E1,8.453344E0,5.0305997E2,1.9199352E2,2.8475616E1,5.1818957E0,1.791834E2,3.238766E2,1.00327934E2,9.166557E1,6.1540666E0,2.232155E1,1.7371567E2,5.46772E0,4.9152874E1,2.747237E2,3.6568047E1,6.375989E1,1.0493242E1,8.1172325E1],"tree_param":{"num_deleted":"0","num_feature":"31","num_nodes":"23","size_leaf_vector":"1"}},{"base_weights":[1.0560522E-2,4.057711E-2,-3.3210692E-1,2.2375057E-2,6.933324E-1,-2.0435686E-1,-5.8791716E-2,2.1836558E-1,-4.127538E-2,5.4110605E-2,7.1756304E-3,1.8917624E-2,-3.3929953E-1,-1.2669985E-2,1.3419414E-2,-2.7458903E-3,5.4464307E-2,-3.2626577E-2,-5.42522E-3],"categories":[],"categories_nodes":[],"categories_segments":[],"categories_sizes":[],"default_left":[0,0,0,0,0,0,0,0,0,0,0,0,0,0,0,0,0,0,0],"id":11,"left_children":[1,3,5,7,9,11,-1,13,15,-1,-1,-1,17,-1,-1,-1,-1,-1,-1],"loss_changes":[7.6307106E0,8.085401E0,6.200498E0,8.296659E0,3.7923565E0,4.3043585E0,0E0,3.9151654E0,7.8074727E0,0E0,0E0,0E0,3.0846806E0,0E0,0E0,0E0,0E0,0E0,0E0],"parents":[2147483647,0,0,1,1,2,2,3,3,4,4,5,5,7,7,8,8,12,12],"right_children":[2,4,6,8,10,12,-1,14,16,-1,-1,-1,18,-1,-1,-1,-1,-1,-1],"split_conditions":[6.6233724E-2,8.370935E-2,3.535686E-2,-2.9933391E-2,7.7461684E-1,-2.1250094E-1,-5.8791716E-2,4.9569866E-1,3.173824E-2,5.4110605E-2,7.1756304E-3,1.8917624E-2,-4.7574386E-2,-1.2669985E-2,1.3419414E-2,-2.7458903E-3,5.4464307E-2,-3.2626577E-2,-5.42522E-3],"split_indices":[4,11,5,6,0,3,0,9,5,0,0,0,11,0,0,0,0,0,0],"split_type":[0,0,0,0,0,0,0,0,0,0,0,0,0,0,0,0,0,0,0],"sum_hessian":[7.39565E2,6.808098E2,5.8755203E1,6.633467E2,1.7463116E1,5.2107704E1,6.6475E0,1.6202216E2,5.013245E2,9.661424E0,7.801692E0,9.458823E0,4.264888E1,1.5142953E1,1.4687921E2,4.9628726E2,5.037247E0,1.7317919E1,2.5330961E1],"tree_param":{"num_deleted":"0","num_feature":"31","num_nodes":"19","size_leaf_vector":"1"}},{"base_weights":[1.5227207E-3,-4.0704402E-1,2.6335677E-2,-1.2764858E-1,-8.347256E-1,3.9622712E-1,3.8698872E-4,-5.3692293E-1,3.5246547E-2,-5.8758277E-1,-5.8364302E-2,7.659844E-1,7.391956E-2,-2.3668712E-1,4.2532925E-2,-4.738982E-2,2.9194977E-3,-9.105154E-3,-4.459889E-2,4.9651936E-2,1.0062843E-2,-3.6564175E-2,2.2301499E-2,-2.0288924E-2,7.7054896E-3,-3.0710984E-3,1.38417035E-2],"categories":[],"categories_nodes":[],"categories_segments":[],"categories_sizes":[],"default_left":[0,0,0,0,0,0,0,0,0,0,0,0,0,0,0,0,0,0,0,0,0,0,0,0,0,0,0],"id":12,"left_children":[1,3,5,7,9,11,13,15,-1,17,-1,19,21,23,25,-1,-1,-1,-1,-1,-1,-1,-1,-1,-1,-1,-1],"loss_changes":[7.5822697E0,5.0103817E0,6.767004E0,9.606765E0,6.900091E-1,5.4513307E0,6.6028724E0,4.635268E0,0E0,1.2714167E0,0E0,2.5463629E0,8.056414E0,6.6539044E0,1.3683082E1,0E0,0E0,0E0,0E0,0E0,0E0,0E0,0E0,0E0,0E0,0E0,0E0],"parents":[2147483647,0,0,1,1,2,2,3,3,4,4,5,5,6,6,7,7,9,9,11,11,12,12,13,13,14,14],"right_children":[2,4,6,8,10,12,14,16,-1,18,-1,20,22,24,26,-1,-1,-1,-1,-1,-1,-1,-1,-1,-1,-1,-1],"split_conditions":[-1.5430963E-1,-8.7703936E-2,-6.6503815E-2,-5.3868942E-2,4.3158695E-1,3.421884E-1,-4.9036294E-2,1.1415542E0,3.5246547E-2,9.3757576E-1,-5.8364302E-2,-8.451989E-2,-7.8616284E-2,-3.7148368E-2,2.0397024E-2,-4.738982E-2,2.9194977E-3,-9.105154E-3,-4.459889E-2,4.9651936E-2,1.0062843E-2,-3.6564175E-2,2.2301499E-2,-2.0288924E-2,7.7054896E-3,-3.0710984E-3,1.38417035E-2],"split_indices":[3,2,14,10,0,0,7,8,0,8,0,3,7,3,5,0,0,0,0,0,0,0,0,0,0,0,0],"split_type":[0,0,0,0,0,0,0,0,0,0,0,0,0,0,0,0,0,0,0,0,0,0,0,0,0,0,0],"sum_hessian":[7.4586694E2,4.1822292E1,7.040446E2,2.6081963E1,1.5740332E1,4.5217133E1,6.588275E2,1.772428E1,8.357683E0,1.0617077E1,5.123255E0,2.0417376E1,2.4799759E1,9.874778E1,5.600797E2,1.0136301E1,7.587978E0,5.237942E0,5.3791347E0,1.4021467E1,6.395908E0,7.533317E0,1.7266443E1,6.88983E1,2.9849485E1,3.884637E2,1.71616E2],"tree_param":{"num_deleted":"0","num_feature":"31","num_nodes":"27","size_leaf_vector":"1"}},{"base_weights":[-1.3145992E-2,-3.6155397E-1,8.761794E-3,-5.939411E-1,2.57377E-1,6.223475E-1,-1.4000606E-2,-2.1281889E-1,-1.0726871E0,3.6621395E-2,-1.0231466E-2,6.75342E-2,2.3925245E-1,-3.1230062E-1,1.7732007E-2,-3.1559315E-2,2.7145892E-2,-2.3524754E-2,-6.772702E-2,-1.5383797E-2,4.3589085E-2,3.1610075E-3,-3.2640707E-2,2.1946745E-2,-7.640264E-4],"categories":[],"categories_nodes":[],"categories_segments":[],"categories_sizes":[],"default_left":[0,0,0,0,0,0,0,0,0,0,0,0,0,0,0,0,0,0,0,0,0,0,0,0,0],"id":13,"left_children":[1,3,5,7,9,11,13,15,17,-1,-1,-1,19,21,23,-1,-1,-1,-1,-1,-1,-1,-1,-1,-1],"loss_changes":[5.695883E0,6.5024652E0,9.822708E0,5.683017E0,2.9478436E0,6.6961565E0,6.428252E0,6.440274E0,1.7579613E0,0E0,0E0,0E0,6.3918147E0,8.3902645E0,8.547451E0,0E0,0E0,0E0,0E0,0E0,0E0,0E0,0E0,0E0,0E0],"parents":[2147483647,0,0,1,1,2,2,3,3,4,4,5,5,6,6,7,7,8,8,12,12,13,13,14,14],"right_children":[2,4,6,8,10,12,14,16,18,-1,-1,-1,20,22,24,-1,-1,-1,-1,-1,-1,-1,-1,-1,-1],"split_conditions":[-1.5430963E-1,1.2097019E0,-8.052946E-2,-8.7703936E-2,1.4340754E0,3.1227472E-1,-2.8871484E-2,-6.1399203E-2,6.8236697E-1,3.6621395E-2,-1.0231466E-2,6.75342E-2,3.963561E-1,9.083626E-1,-3.9012242E-2,-3.1559315E-2,2.7145892E-2,-2.3524754E-2,-6.772702E-2,-1.5383797E-2,4.3589085E-2,3.1610075E-3,-3.2640707E-2,2.1946745E-2,-7.640264E-4],"split_indices":[12,9,6,2,8,0,1,6,9,0,0,0,0,8,6,0,0,0,0,0,0,0,0,0,0],"split_type":[0,0,0,0,0,0,0,0,0,0,0,0,0,0,0,0,0,0,0,0,0,0,0,0,0],"sum_hessian":[7.4481793E2,4.314606E1,7.016719E2,3.1397692E1,1.1748368E1,2.4156828E1,6.775151E2,1.828546E1,1.3112233E1,5.503825E0,6.2445436E0,7.455945E0,1.6700882E1,6.42929E1,6.1322217E2,1.18759E1,6.4095583E0,5.031499E0,8.080734E0,9.231913E0,7.4689693E0,3.0962055E1,3.333085E1,4.367552E1,5.6954663E2],"tree_param":{"num_deleted":"0","num_feature":"31","num_nodes":"25","size_leaf_vector":"1"}},{"base_weights":[3.8076346E-3,-1.437008E-1,8.080565E-2,-9.236814E-3,-3.7187472E-1,-8.358578E-2,1.8600878E-1,-9.444551E-2,3.9482754E-1,-3.8305342E-2,-5.8071786E-1,1.12739034E-1,-3.5167727E-1,4.017856E-2,3.0783468E-1,1.7308168E-2,-7.826824E-3,3.692564E-2,-2.148593E-3,1.4317296E-2,-2.1803318E-2,-4.1637924E-2,1.2478564E-3,2.5561842E-4,2.9647956E-2,1.5012606E-2,-2.7831046E-2,3.3927787E-2,-2.151977E-3,2.0255696E-2,-3.6025941E-3],"categories":[],"categories_nodes":[],"categories_segments":[],"categories_sizes":[],"default_left":[0,0,0,0,0,0,0,0,0,0,0,0,0,0,0,0,0,0,0,0,0,0,0,0,0,0,0,0,0,0,0],"id":14,"left_children":[1,3,5,7,9,11,13,15,17,19,21,23,25,27,29,-1,-1,-1,-1,-1,-1,-1,-1,-1,-1,-1,-1,-1,-1,-1,-1],"loss_changes":[8.459273E0,7.834022E0,8.47816E0,5.606486E0,6.574437E0,1.0126106E1,5.2940664E0,3.7308564E0,4.2994223E0,4.971255E0,8.89967E0,5.75374E0,1.1023453E1,7.312568E0,6.037595E0,0E0,0E0,0E0,0E0,0E0,0E0,0E0,0E0,0E0,0E0,0E0,0E0,0E0,0E0,0E0,0E0],"parents":[2147483647,0,0,1,1,2,2,3,3,4,4,5,5,6,6,7,7,8,8,9,9,10,10,11,11,12,12,13,13,14,14],"right_children":[2,4,6,8,10,12,14,16,18,20,22,24,26,28,30,-1,-1,-1,-1,-1,-1,-1,-1,-1,-1,-1,-1,-1,-1,-1,-1],"split_conditions":[7.5447917E-1,3.8297478E-2,1.7133454E-2,2.192008E-2,-1.5468313E-2,1.5084582E-2,-1.055524E-2,-3.829526E-2,2.44392E-2,5.8860147E-1,1.2008585E-1,4.1207913E-2,8.9959073E-1,1.7915891E-2,5.5789765E-2,1.7308168E-2,-7.826824E-3,3.692564E-2,-2.148593E-3,1.4317296E-2,-2.1803318E-2,-4.1637924E-2,1.2478564E-3,2.5561842E-4,2.9647956E-2,1.5012606E-2,-2.7831046E-2,3.3927787E-2,-2.151977E-3,2.0255696E-2,-3.6025941E-3],"split_indices":[9,4,5,5,10,5,14,14,5,8,3,11,9,5,4,0,0,0,0,0,0,0,0,0,0,0,0,0,0,0,0],"split_type":[0,0,0,0,0,0,0,0,0,0,0,0,0,0,0,0,0,0,0,0,0,0,0,0,0,0,0,0,0,0,0],"sum_hessian":[7.427725E2,2.5444841E2,4.883241E2,1.6075513E2,9.3693275E1,1.9063753E2,2.9768658E2,1.3339185E2,2.7363281E1,3.6530037E1,5.7163242E1,1.1038297E2,8.025456E1,1.360998E2,1.6158679E2,1.5910799E1,1.1748106E2,1.4944522E1,1.2418759E1,2.0267704E1,1.6262331E1,4.0101017E1,1.7062227E1,9.099898E1,1.9383995E1,1.9083755E1,6.1170803E1,1.4870703E1,1.2122909E2,1.2859142E2,3.299537E1],"tree_param":{"num_deleted":"0","num_feature":"31","num_nodes":"31","size_leaf_vector":"1"}},{"base_weights":[2.887126E-2,5.378376E-2,-2.8556016E-1,3.7436817E-2,9.9059325E-1,-1.524354E-1,-4.8306234E-2,7.046232E-1,2.3226624E-2,1.9200267E-2,7.065852E-2,2.8708404E-1,-3.6182755E-1,5.189323E-3,6.560649E-2,-2.0879915E-2,2.0648825E-3,-1.4644265E-3,3.9556295E-2,-5.506658E-2,-4.2718933E-3],"categories":[],"categories_nodes":[],"categories_segments":[],"categories_sizes":[],"default_left":[0,0,0,0,0,0,0,0,0,0,0,0,0,0,0,0,0,0,0,0,0],"id":15,"left_children":[1,3,5,7,9,11,-1,13,15,-1,-1,17,19,-1,-1,-1,-1,-1,-1,-1,-1],"loss_changes":[5.8552155E0,1.055451E1,4.8257465E0,6.438263E0,2.487771E0,4.4382896E0,0E0,5.0337844E0,5.3357987E0,0E0,0E0,2.5355265E0,6.5163193E0,0E0,0E0,0E0,0E0,0E0,0E0,0E0,0E0],"parents":[2147483647,0,0,1,1,2,2,3,3,4,4,5,5,7,7,8,8,11,11,12,12],"right_children":[2,4,6,8,10,12,-1,14,16,-1,-1,18,20,-1,-1,-1,-1,-1,-1,-1,-1],"split_conditions":[6.6233724E-2,3.226568E-2,3.413129E-2,-8.7703936E-2,-4.783712E-2,-8.391509E-2,-4.8306234E-2,-8.862634E-2,-9.1842845E-2,1.9200267E-2,7.065852E-2,-4.2529725E-2,-4.7574386E-2,5.189323E-3,6.560649E-2,-2.0879915E-2,2.0648825E-3,-1.4644265E-3,3.9556295E-2,-5.506658E-2,-4.2718933E-3],"split_indices":[4,18,18,11,3,11,0,6,7,0,0,6,11,0,0,0,0,0,0,0,0],"split_type":[0,0,0,0,0,0,0,0,0,0,0,0,0,0,0,0,0,0,0,0,0],"sum_hessian":[7.445194E2,6.906296E2,5.3889847E1,6.798072E2,1.0822395E1,4.609686E1,7.79299E0,1.31638155E1,6.666434E2,5.227421E0,5.594975E0,1.4754903E1,3.1341955E1,7.206889E0,5.956926E0,2.5381363E1,6.41262E2,9.643714E0,5.1111894E0,7.71503E0,2.3626925E1],"tree_param":{"num_deleted":"0","num_feature":"31","num_nodes":"21","size_leaf_vector":"1"}},{"base_weights":[-6.668242E-3,-3.4971207E-1,1.4935232E-2,-6.3184804E-1,2.8049633E-2,-1.0301011E-2,3.8359684E-1,-2.4411385E-3,-8.121892E-1,5.599287E-1,-2.4736134E-2,8.414137E-2,8.1161237E-1,-2.9669855E-2,-6.416315E-2,4.7355194E-2,-8.387682E-3,-3.7627917E-2,-3.5154153E-4,1.4596142E-2,-2.927284E-2,6.678082E-2,-1.235202E-2],"categories":[],"categories_nodes":[],"categories_segments":[],"categories_sizes":[],"default_left":[0,0,0,0,0,0,0,0,0,0,0,0,0,0,0,0,0,0,0,0,0,0,0],"id":16,"left_children":[1,3,5,7,-1,9,11,-1,13,15,17,19,21,-1,-1,-1,-1,-1,-1,-1,-1,-1,-1],"loss_changes":[5.484139E0,1.1619016E1,6.4835653E0,3.529089E0,0E0,5.3873773E0,5.6541824E0,0E0,1.9037457E0,4.711805E0,8.211711E0,3.9808745E0,1.0461012E1,0E0,0E0,0E0,0E0,0E0,0E0,0E0,0E0,0E0,0E0],"parents":[2147483647,0,0,1,1,2,2,3,3,5,5,6,6,8,8,9,9,10,10,11,11,12,12],"right_children":[2,4,6,8,-1,10,12,-1,14,16,18,20,22,-1,-1,-1,-1,-1,-1,-1,-1,-1,-1],"split_conditions":[-1.5430963E-1,1.345345E0,2.8301205E-2,1.8756169E-1,2.8049633E-2,-7.163737E-2,-7.918965E-3,-2.4411385E-3,-2.0291192E-2,9.707671E-1,-9.1842845E-2,3.413129E-2,6.917365E-2,-2.9669855E-2,-6.416315E-2,4.7355194E-2,-8.387682E-3,-3.7627917E-2,-3.5154153E-4,1.4596142E-2,-2.927284E-2,6.678082E-2,-1.235202E-2],"split_indices":[12,9,5,0,0,2,7,0,1,9,7,5,12,0,0,0,0,0,0,0,0,0,0],"split_type":[0,0,0,0,0,0,0,0,0,0,0,0,0,0,0,0,0,0,0,0,0,0,0],"sum_hessian":[7.383012E2,4.2840748E1,6.9546045E2,3.294164E1,9.899109E0,6.518135E2,4.3646973E1,8.082483E0,2.4859156E1,1.5159991E1,6.366535E2,2.6384201E1,1.7262774E1,1.8518044E1,6.341111E0,9.698313E0,5.461679E0,1.4134006E1,6.2251953E2,2.056634E1,5.8178606E0,1.1372219E1,5.8905544E0],"tree_param":{"num_deleted":"0","num_feature":"31","num_nodes":"23","size_leaf_vector":"1"}},{"base_weights":[-1.7566282E-2,-8.628023E-2,1.01928525E-1,-9.607629E-3,-3.2413346E-1,-3.5336735E-3,4.4334197E-1,-5.351777E-2,4.9720094E-1,-4.3239826E-1,2.3543735E-1,-1.0766913E-1,3.403364E-1,5.711782E-1,-1.5798561E-1,-1.2194867E-2,8.638382E-4,4.439617E-2,-1.1928174E-2,-6.967882E-3,-3.5419267E-2,4.8698496E-2,-2.6574021E-2,-2.294522E-3,-5.477651E-2,4.753552E-2,9.414426E-3,1.5705597E-2,3.7753716E-2,-3.2348428E-2,1.6690424E-2],"categories":[],"categories_nodes":[],"categories_segments":[],"categories_sizes":[],"default_left":[0,0,0,0,0,0,0,0,0,0,0,0,0,0,0,0,0,0,0,0,0,0,0,0,0,0,0,0,0,0,0],"id":17,"left_children":[1,3,5,7,9,11,13,15,17,19,21,23,25,27,29,-1,-1,-1,-1,-1,-1,-1,-1,-1,-1,-1,-1,-1,-1,-1,-1],"loss_changes":[6.0543113E0,8.531834E0,9.696885E0,7.9256773E0,7.0115385E0,7.438846E0,4.975792E0,4.418901E0,8.3757305E0,7.658758E0,1.1356984E1,9.679168E0,4.3025227E0,2.2507877E0,3.0838444E0,0E0,0E0,0E0,0E0,0E0,0E0,0E0,0E0,0E0,0E0,0E0,0E0,0E0,0E0,0E0,0E0],"parents":[2147483647,0,0,1,1,2,2,3,3,4,4,5,5,6,6,7,7,8,8,9,9,10,10,11,11,12,12,13,13,14,14],"right_children":[2,4,6,8,10,12,14,16,18,20,22,24,26,28,30,-1,-1,-1,-1,-1,-1,-1,-1,-1,-1,-1,-1,-1,-1,-1,-1],"split_conditions":[2.0900449E-2,3.8297478E-2,1.26472E0,6.875114E-1,1.4593437E-1,4.3345787E-2,1.9539467E0,1.96609E-2,9.351329E-2,1.2022716E-3,7.7461684E-1,1.2845019E0,5.929557E-1,-6.2776E-2,2.0400672E0,-1.2194867E-2,8.638382E-4,4.439617E-2,-1.1928174E-2,-6.967882E-3,-3.5419267E-2,4.8698496E-2,-2.6574021E-2,-2.294522E-3,-5.477651E-2,4.753552E-2,9.414426E-3,1.5705597E-2,3.7753716E-2,-3.2348428E-2,1.6690424E-2],"split_indices":[24,4,9,0,3,3,9,4,3,1,0,8,8,3,8,0,0,0,0,0,0,0,0,0,0,0,0,0,0,0,0],"split_type":[0,0,0,0,0,0,0,0,0,0,0,0,0,0,0,0,0,0,0,0,0,0,0,0,0,0,0,0,0,0,0],"sum_hessian":[7.352741E2,4.670062E2,2.682679E2,3.5394992E2,1.1305627E2,2.0571306E2,6.2554863E1,3.2655173E2,2.73982E1,9.491881E1,1.8137459E1,1.5842386E2,4.72892E1,5.1629158E1,1.0925705E1,8.785318E1,2.3869855E2,1.7760048E1,9.638151E0,4.676699E1,4.815182E1,9.102185E0,9.035274E0,1.5008437E2,8.339498E0,8.383233E0,3.8905968E1,2.2660456E1,2.89687E1,5.3202944E0,5.6054106E0],"tree_param":{"num_deleted":"0","num_feature":"31","num_nodes":"31","size_leaf_vector":"1"}},{"base_weights":[-6.447616E-3,-1.21950485E-1,6.581404E-2,-6.659097E-2,-5.795497E-1,1.1517344E-1,-2.564758E-1,-4.0080323E-4,-3.6875078E-1,-7.834117E-1,1.145398E-2,9.380652E-2,4.2522945E-2,-1.0647554E-1,-4.7997545E-2,-4.8339413E-3,2.0002631E-2,-2.9870279E-3,-4.9718164E-2,-1.8864416E-3,-4.9106624E-2,3.4927297E-3,3.622919E-2,-1.096737E-2,3.4151748E-2],"categories":[],"categories_nodes":[],"categories_segments":[],"categories_sizes":[],"default_left":[0,0,0,0,0,0,0,0,0,0,0,0,0,0,0,0,0,0,0,0,0,0,0,0,0],"id":18,"left_children":[1,3,5,7,9,11,13,15,17,19,-1,21,-1,23,-1,-1,-1,-1,-1,-1,-1,-1,-1,-1,-1],"loss_changes":[6.2250624E0,7.2322593E0,7.3290477E0,5.143285E0,5.26433E0,6.1826234E0,6.3611345E0,8.210784E0,8.874138E0,3.646945E0,0E0,5.8185635E0,0E0,4.7490726E0,0E0,0E0,0E0,0E0,0E0,0E0,0E0,0E0,0E0,0E0,0E0],"parents":[2147483647,0,0,1,1,2,2,3,3,4,4,5,5,6,6,7,7,8,8,9,9,11,11,13,13],"right_children":[2,4,6,8,10,12,14,16,18,20,-1,22,-1,24,-1,-1,-1,-1,-1,-1,-1,-1,-1,-1,-1],"split_conditions":[1.7011533E-2,4.170227E-2,6.4707205E-2,5.7789057E-2,8.488816E-1,3.226568E-2,3.413129E-2,1.7451154E-2,1.5710784E-2,1.3754989E-2,1.145398E-2,8.370935E-2,4.2522945E-2,1.6139659E0,-4.7997545E-2,-4.8339413E-3,2.0002631E-2,-2.9870279E-3,-4.9718164E-2,-1.8864416E-3,-4.9106624E-2,3.4927297E-3,3.622919E-2,-1.096737E-2,3.4151748E-2],"split_indices":[5,4,4,3,13,5,5,2,5,5,0,2,0,8,0,0,0,0,0,0,0,0,0,0,0],"split_type":[0,0,0,0,0,0,0,0,0,0,0,0,0,0,0,0,0,0,0,0,0,0,0,0,0],"sum_hessian":[7.438739E2,2.8601712E2,4.5785678E2,2.5617148E2,2.9845634E1,3.976053E2,6.0251484E1,2.1096048E2,4.5211006E1,2.3861214E1,5.984421E0,3.8747314E2,1.013214E1,5.061115E1,9.640334E0,1.7068301E2,4.0277462E1,3.0996384E1,1.4214625E1,5.2712297E0,1.8589985E1,3.7436835E2,1.31048E1,4.491244E1,5.6987057E0],"tree_param":{"num_deleted":"0","num_feature":"31","num_nodes":"25","size_leaf_vector":"1"}},{"base_weights":[-5.163555E-3,-3.358977E-1,1.4753068E-2,-6.4662814E-2,-1.3584627E-1,-6.976785E-3,3.3746803E-1,-3.0861312E-1,3.0452166E-2,1.4910131E-2,-3.380324E-1,5.122327E-1,-1.6419483E-2,2.319783E-3,-2.972944E-2,1.1813013E-2,-1.430794E-3,-3.3712126E-2,2.1792045E-3,-3.4574058E-3,3.4223888E-2],"categories":[],"categories_nodes":[],"categories_segments":[],"categories_sizes":[],"default_left":[0,0,0,0,0,0,0,0,0,0,0,0,0,0,0,0,0,0,0,0,0],"id":19,"left_children":[1,3,5,-1,7,9,11,13,-1,15,17,19,-1,-1,-1,-1,-1,-1,-1,-1,-1],"loss_changes":[4.8781624E0,7.8801765E0,4.902354E0,0E0,4.8092527E0,4.755707E0,5.3002744E0,3.0542827E0,0E0,5.941074E0,5.251407E0,3.584653E0,0E0,0E0,0E0,0E0,0E0,0E0,0E0,0E0,0E0],"parents":[2147483647,0,0,1,1,2,2,4,4,5,5,6,6,7,7,9,9,10,10,11,11],"right_children":[2,4,6,-1,8,10,12,14,-1,16,18,20,-1,-1,-1,-1,-1,-1,-1,-1,-1],"split_conditions":[-1.5430963E-1,2.1303175E-2,2.8094497E-2,-6.4662814E-2,1.4233315E0,2.5468225E-2,6.6233724E-2,2.8301205E-2,3.0452166E-2,-3.701501E-2,-1.5033574E-2,3.80365E-2,-1.6419483E-2,2.319783E-3,-2.972944E-2,1.1813013E-2,-1.430794E-3,-3.3712126E-2,2.1792045E-3,-3.4574058E-3,3.4223888E-2],"split_indices":[3,5,5,0,8,5,4,5,0,6,11,4,0,0,0,0,0,0,0,0,0],"split_type":[0,0,0,0,0,0,0,0,0,0,0,0,0,0,0,0,0,0,0,0,0],"sum_hessian":[7.388099E2,4.1062553E1,6.977473E2,6.152891E0,3.490966E1,6.5464545E2,4.310185E1,2.8812656E1,6.0970054E0,6.149449E2,3.9700584E1,3.4323765E1,8.778087E0,1.3228556E1,1.5584101E1,1.0032374E2,5.1462115E2,2.0698275E1,1.900231E1,7.9816737E0,2.6342089E1],"tree_param":{"num_deleted":"0","num_feature":"31","num_nodes":"21","size_leaf_vector":"1"}},{"base_weights":[-1.2188908E-2,-7.8970425E-2,6.859416E-2,-4.851738E-2,-5.411435E-1,-4.106387E-2,2.883175E-1,-7.0289776E-2,5.330201E-1,2.159469E-2,-8.7003523E-1,1.6188847E-1,-2.7034667E-1,8.4184647E-1,1.3951717E-1,-6.544353E-3,5.960061E-3,5.032128E-2,-2.4107017E-3,-1.2421171E-2,-5.665666E-2,1.2466428E-2,-2.9929657E-2,4.092438E-2,-1.8084612E-2,1.1902949E-3,5.5423167E-2,-1.1302443E-2,1.6164778E-2],"categories":[],"categories_nodes":[],"categories_segments":[],"categories_sizes":[],"default_left":[0,0,0,0,0,0,0,0,0,0,0,0,0,0,0,0,0,0,0,0,0,0,0,0,0,0,0,0,0],"id":20,"left_children":[1,3,5,7,9,11,13,15,17,-1,19,21,23,25,27,-1,-1,-1,-1,-1,-1,-1,-1,-1,-1,-1,-1,-1,-1],"loss_changes":[3.9972005E0,5.6814566E0,8.093019E0,4.8686094E0,8.36698E0,1.0495698E1,9.089762E0,4.24898E0,3.869509E0,0E0,2.8249302E0,8.113692E0,1.0822782E1,5.0957546E0,6.072549E0,0E0,0E0,0E0,0E0,0E0,0E0,0E0,0E0,0E0,0E0,0E0,0E0,0E0,0E0],"parents":[2147483647,0,0,1,1,2,2,3,3,4,4,5,5,6,6,7,7,8,8,10,10,11,11,12,12,13,13,14,14],"right_children":[2,4,6,8,10,12,14,16,18,-1,20,22,24,26,28,-1,-1,-1,-1,-1,-1,-1,-1,-1,-1,-1,-1,-1,-1],"split_conditions":[5.2257466E-1,5.096839E-1,1.9854015E-2,6.259401E-2,-8.866007E-3,5.204488E-2,3.109888E-2,1.26472E0,-2.0000073E-3,2.159469E-2,-1.1382825E-2,1.8734496E-2,1.1674346E-2,3.7401598E-3,7.5845563E-1,-6.544353E-3,5.960061E-3,5.032128E-2,-2.4107017E-3,-1.2421171E-2,-5.665666E-2,1.2466428E-2,-2.9929657E-2,4.092438E-2,-1.8084612E-2,1.1902949E-3,5.5423167E-2,-1.1302443E-2,1.6164778E-2],"split_indices":[0,0,5,3,1,3,4,9,7,0,3,5,5,20,9,0,0,0,0,0,0,0,0,0,0,0,0,0,0],"split_type":[0,0,0,0,0,0,0,0,0,0,0,0,0,0,0,0,0,0,0,0,0,0,0,0,0,0,0,0,0],"sum_hessian":[7.389296E2,4.0453348E2,3.3439615E2,3.8056277E2,2.3970682E1,2.2361101E2,1.1078513E2,3.6767636E2,1.288644E1,5.97633E0,1.7994352E1,1.1877228E2,1.0483873E2,2.2484922E1,8.830022E1,2.7882138E2,8.8854965E1,6.6988254E0,6.1876144E0,5.929399E0,1.2064953E1,1.07126976E2,1.1645304E1,7.4983582E0,9.734037E1,5.794717E0,1.6690207E1,2.946312E1,5.8837093E1],"tree_param":{"num_deleted":"0","num_feature":"31","num_nodes":"29","size_leaf_vector":"1"}},{"base_weights":[5.038754E-5,-4.02952E-1,1.9918164E-2,-1.0870605E-1,-9.606766E-1,7.830028E-2,-8.7446384E-2,1.7830826E-1,-4.3565497E-2,-6.270137E-2,-2.7779624E-2,4.3522824E-2,7.36317E-1,3.229963E-1,-1.581674E-1,2.9521836E-2,-1.2326763E-2,-8.59947E-3,5.096707E-3,2.0495506E-2,5.211511E-2,2.634641E-2,-2.9490734E-2,-2.5343662E-2,-3.2978603E-3],"categories":[],"categories_nodes":[],"categories_segments":[],"categories_sizes":[],"default_left":[0,0,0,0,0,0,0,0,0,0,0,0,0,0,0,0,0,0,0,0,0,0,0,0,0],"id":21,"left_children":[1,3,5,7,9,11,13,15,-1,-1,-1,17,19,21,23,-1,-1,-1,-1,-1,-1,-1,-1,-1,-1],"loss_changes":[5.9158936E0,5.592437E0,4.420553E0,5.376143E0,7.1281147E-1,1.0417936E1,7.2642393E0,3.325235E0,0E0,0E0,0E0,5.4907813E0,1.8559408E0,7.170993E0,6.8040347E0,0E0,0E0,0E0,0E0,0E0,0E0,0E0,0E0,0E0,0E0],"parents":[2147483647,0,0,1,1,2,2,3,3,4,4,5,5,6,6,7,7,11,11,12,12,13,13,14,14],"right_children":[2,4,6,8,10,12,14,16,-1,-1,-1,18,20,22,24,-1,-1,-1,-1,-1,-1,-1,-1,-1,-1],"split_conditions":[4.1105863E-1,2.1685595E-2,3.9465677E-2,3.8575336E-1,3.8517192E-2,8.493225E-2,-4.4408068E-2,4.2892617E-1,-4.3565497E-2,-6.270137E-2,-2.7779624E-2,1.96609E-2,1.7915891E-2,3.413129E-2,-6.454185E-2,2.9521836E-2,-1.2326763E-2,-8.59947E-3,5.096707E-3,2.0495506E-2,5.211511E-2,2.634641E-2,-2.9490734E-2,-2.5343662E-2,-3.2978603E-3],"split_indices":[9,7,4,9,11,7,1,0,0,0,0,4,5,5,7,0,0,0,0,0,0,0,0,0,0],"split_type":[0,0,0,0,0,0,0,0,0,0,0,0,0,0,0,0,0,0,0,0,0,0,0,0,0],"sum_hessian":[7.368599E2,3.3714096E1,7.031458E2,2.2852448E1,1.0861649E1,4.5564716E2,2.4749867E2,1.7160202E1,5.6922445E0,5.0841365E0,5.777512E0,4.3378683E2,2.1860336E1,3.5852837E1,2.1164584E2,8.5126E0,8.647602E0,9.2085846E1,3.41701E2,1.1709246E1,1.0151091E1,2.9651182E1,6.2016563E0,4.332172E1,1.6832411E2],"tree_param":{"num_deleted":"0","num_feature":"31","num_nodes":"25","size_leaf_vector":"1"}},{"base_weights":[-1.1871059E-3,-2.4437335E-1,2.14583E-2,-5.0988817E-3,-7.7422124E-1,6.684398E-1,-1.0401548E-3,-4.404585E-2,1.8758476E-1,-4.3846536E-1,-5.7468463E-2,1.4008039E-1,6.30508E-2,6.766002E-2,-1.0698367E-1,-1.796154E-2,1.7125482E-2,-4.5394532E-2,7.875856E-3,-2.6407683E-2,3.3150204E-2,2.9563475E-2,1.9715219E-3,-2.0201663E-2,5.1120966E-4],"categories":[],"categories_nodes":[],"categories_segments":[],"categories_sizes":[],"default_left":[0,0,0,0,0,0,0,0,0,0,0,0,0,0,0,0,0,0,0,0,0,0,0,0,0],"id":22,"left_children":[1,3,5,7,9,11,13,-1,15,17,-1,19,-1,21,23,-1,-1,-1,-1,-1,-1,-1,-1,-1,-1],"loss_changes":[4.049903E0,7.938307E0,9.794096E0,7.6181283E0,1.9500465E0,6.902935E0,4.7468395E0,0E0,3.2595468E0,3.4716775E0,0E0,4.9202685E0,0E0,5.824803E0,8.936292E0,0E0,0E0,0E0,0E0,0E0,0E0,0E0,0E0,0E0,0E0],"parents":[2147483647,0,0,1,1,2,2,3,3,4,4,5,5,6,6,8,8,9,9,11,11,13,13,14,14],"right_children":[2,4,6,8,10,12,14,-1,16,18,-1,20,-1,22,24,-1,-1,-1,-1,-1,-1,-1,-1,-1,-1],"split_conditions":[1.7816244E-2,1.5765565E-2,1.1674346E-2,-1.9701174E-2,2.705804E-3,1.9023601E-2,3.9465677E-2,-4.404585E-2,1.1737922E-2,-1.0592275E-2,-5.7468463E-2,1.0973848E-2,6.30508E-2,-6.811102E-2,4.579448E-2,-1.796154E-2,1.7125482E-2,-4.5394532E-2,7.875856E-3,-2.6407683E-2,3.3150204E-2,2.9563475E-2,1.9715219E-3,-2.0201663E-2,5.1120966E-4],"split_indices":[4,4,5,6,1,2,4,0,4,2,0,5,0,6,4,0,0,0,0,0,0,0,0,0,0],"split_type":[0,0,0,0,0,0,0,0,0,0,0,0,0,0,0,0,0,0,0,0,0,0,0,0,0],"sum_hessian":[7.33451E2,6.164641E1,6.7180457E2,4.31637E1,1.848271E1,2.1611734E1,6.501928E2,7.1396284E0,3.602407E1,1.0897909E1,7.5848017E0,1.207853E1,9.533205E0,3.946435E2,2.5554933E2,7.661977E0,2.8362095E1,5.8034635E0,5.0944457E0,5.298139E0,6.780391E0,1.9167877E1,3.7547562E2,7.161143E1,1.839379E2],"tree_param":{"num_deleted":"0","num_feature":"31","num_nodes":"25","size_leaf_vector":"1"}},{"base_weights":[5.9434334E-3,-2.1351837E-1,3.7055213E-2,-1.3170429E-1,-5.7356577E-2,5.872826E-1,1.3177922E-2,-4.412407E-1,6.041887E-2,-1.7230345E-2,1.0039122E0,-1.2855878E-1,7.034644E-2,1.627975E-2,-3.0366609E-2,2.5298554E-2,-5.815185E-3,2.077562E-2,6.108829E-2,1.20103934E-4,-2.870669E-2,2.7792523E-2,2.2907776E-3],"categories":[],"categories_nodes":[],"categories_segments":[],"categories_sizes":[],"default_left":[0,0,0,0,0,0,0,0,0,0,0,0,0,0,0,0,0,0,0,0,0,0,0],"id":23,"left_children":[1,3,5,7,-1,9,11,13,15,-1,17,19,21,-1,-1,-1,-1,-1,-1,-1,-1,-1,-1],"loss_changes":[5.11401E0,6.95256E0,8.608562E0,5.178897E0,0E0,1.0927194E1,5.1104536E0,4.439037E0,4.3372846E0,0E0,1.9392605E0,1.0581049E1,5.325329E0,0E0,0E0,0E0,0E0,0E0,0E0,0E0,0E0,0E0,0E0],"parents":[2147483647,0,0,1,1,2,2,3,3,5,5,6,6,7,7,8,8,10,10,11,11,12,12],"right_children":[2,4,6,8,-1,10,12,14,16,-1,18,20,22,-1,-1,-1,-1,-1,-1,-1,-1,-1,-1],"split_conditions":[1.96609E-2,5.7789057E-2,1.2248416E-2,-7.2658034E-3,-5.7356577E-2,1.0831386E-2,1.7011533E-2,-4.2272646E-2,-4.6723822E-4,-1.7230345E-2,-1.2562409E-2,3.843163E-2,2.2487327E-2,1.627975E-2,-3.0366609E-2,2.5298554E-2,-5.815185E-3,2.077562E-2,6.108829E-2,1.20103934E-4,-2.870669E-2,2.7792523E-2,2.2907776E-3],"split_indices":[4,12,18,2,0,18,18,7,6,0,7,4,4,0,0,0,0,0,0,0,0,0,0],"split_type":[0,0,0,0,0,0,0,0,0,0,0,0,0,0,0,0,0,0,0,0,0,0,0],"sum_hessian":[7.468342E2,9.200066E1,6.548336E2,8.56372E1,6.3634605E0,2.625348E1,6.2858014E2,3.2300335E1,5.333687E1,8.164512E0,1.808897E1,1.8030498E2,4.4827515E2,5.579542E0,2.672079E1,1.4618267E1,3.8718597E1,5.673294E0,1.2415676E1,1.4011716E2,4.018782E1,2.0518724E1,4.277564E2],"tree_param":{"num_deleted":"0","num_feature":"31","num_nodes":"23","size_leaf_vector":"1"}},{"base_weights":[-2.0455018E-2,-2.7169317E-1,1.5588509E-2,-1.6183434E-1,-5.3681135E-2,1.0723659E-1,-4.6876326E-2,-2.9597852E-1,1.8164915E-1,-3.9204076E-2,2.882708E-1,-6.691874E-1,-1.6955502E-2,-7.3357434E-3,-3.8341485E-2,5.745685E-2,-8.097555E-3,-3.6088245E-3,3.694307E-2,3.0178083E-2,7.318181E-3,-5.7940554E-2,-1.7783837E-2,-5.4235556E-3,8.625536E-3],"categories":[],"categories_nodes":[],"categories_segments":[],"categories_sizes":[],"default_left":[0,0,0,0,0,0,0,0,0,0,0,0,0,0,0,0,0,0,0,0,0,0,0,0,0],"id":24,"left_children":[1,3,5,7,-1,9,11,13,15,17,19,21,23,-1,-1,-1,-1,-1,-1,-1,-1,-1,-1,-1,-1],"loss_changes":[6.71483E0,8.022062E0,3.7205336E0,3.8780131E0,0E0,6.9933014E0,7.188227E0,4.109133E0,8.14118E0,3.8110523E0,5.186367E0,2.306623E0,6.4332337E0,0E0,0E0,0E0,0E0,0E0,0E0,0E0,0E0,0E0,0E0,0E0,0E0],"parents":[2147483647,0,0,1,1,2,2,3,3,5,5,6,6,7,7,8,8,9,9,10,10,11,11,12,12],"right_children":[2,4,6,8,-1,10,12,14,16,18,20,22,24,-1,-1,-1,-1,-1,-1,-1,-1,-1,-1,-1,-1],"split_conditions":[1.96609E-2,5.1248644E-2,-7.889001E-3,5.388948E-1,-5.3681135E-2,-4.9624242E-2,3.421884E-1,5.056528E-1,4.7218765E-4,2.0159395E0,-3.3192303E-2,1.6925476E-2,2.1236675E-2,-7.3357434E-3,-3.8341485E-2,5.745685E-2,-8.097555E-3,-3.6088245E-3,3.694307E-2,3.0178083E-2,7.318181E-3,-5.7940554E-2,-1.7783837E-2,-5.4235556E-3,8.625536E-3],"split_indices":[4,3,1,0,0,7,0,0,6,9,7,5,5,0,0,0,0,0,0,0,0,0,0,0,0],"split_type":[0,0,0,0,0,0,0,0,0,0,0,0,0,0,0,0,0,0,0,0,0,0,0,0,0],"sum_hessian":[7.40051E2,9.202953E1,6.480215E2,8.199815E1,1.0031376E1,2.6236465E2,3.856568E2,5.9068012E1,2.2930143E1,1.4547318E2,1.1689149E2,1.6711697E1,3.689451E2,4.584604E1,1.3221974E1,5.3949585E0,1.7535185E1,1.4042938E2,5.043799E0,3.5271557E1,8.161993E1,5.471059E0,1.1240638E1,2.4906818E2,1.1987693E2],"tree_param":{"num_deleted":"0","num_feature":"31","num_nodes":"25","size_leaf_vector":"1"}},{"base_weights":[2.8047059E-2,5.035402E-2,-2.534467E-1,-3.2838386E-1,6.997784E-2,-1.3277969E-1,-4.520941E-2,1.8713456E-2,-5.72055E-1,4.8244305E-2,4.607794E-1,8.502856E-2,-6.830698E-1,6.847299E-3,-3.8229987E-2,9.0387353E-4,2.2459475E-2,4.9875225E-3,5.050511E-2,-1.0046451E-2,2.5948051E-2,-4.28286E-3,-5.123024E-2],"categories":[],"categories_nodes":[],"categories_segments":[],"categories_sizes":[],"default_left":[0,0,0,0,0,0,0,0,0,0,0,0,0,0,0,0,0,0,0,0,0,0,0],"id":25,"left_children":[1,3,5,7,9,11,-1,-1,13,15,17,19,21,-1,-1,-1,-1,-1,-1,-1,-1,-1,-1],"loss_changes":[4.688963E0,5.1576333E0,4.1866674E0,6.071109E0,5.5635185E0,5.744062E0,0E0,0E0,3.6261492E0,7.5407624E0,6.747269E0,4.431958E0,2.6795955E0,0E0,0E0,0E0,0E0,0E0,0E0,0E0,0E0,0E0,0E0],"parents":[2147483647,0,0,1,1,2,2,3,3,4,4,5,5,8,8,9,9,10,10,11,11,12,12],"right_children":[2,4,6,8,10,12,-1,-1,14,16,18,20,22,-1,-1,-1,-1,-1,-1,-1,-1,-1,-1],"split_conditions":[6.6233724E-2,4.1105863E-1,3.413129E-2,-4.0236935E-2,7.7484675E-2,2.3827082E-2,-4.520941E-2,1.8713456E-2,2.060097E-2,2.7544368E-2,6.9894886E-1,1.0803868E0,8.4394574E-1,6.847299E-3,-3.8229987E-2,9.0387353E-4,2.2459475E-2,4.9875225E-3,5.050511E-2,-1.0046451E-2,2.5948051E-2,-4.28286E-3,-5.123024E-2],"split_indices":[4,9,5,7,6,1,0,0,4,5,0,8,8,0,0,0,0,0,0,0,0,0,0],"split_type":[0,0,0,0,0,0,0,0,0,0,0,0,0,0,0,0,0,0,0,0,0,0,0],"sum_hessian":[7.437045E2,6.898579E2,5.384664E1,3.3208237E1,6.5664966E2,4.6439423E1,7.40722E0,8.412859E0,2.479538E1,6.231197E2,3.3529938E1,3.387641E1,1.2563009E1,5.357264E0,1.9438116E1,5.804892E2,4.2630512E1,2.0945564E1,1.25843725E1,2.0743555E1,1.3132858E1,5.024667E0,7.538342E0],"tree_param":{"num_deleted":"0","num_feature":"31","num_nodes":"23","size_leaf_vector":"1"}},{"base_weights":[-2.5647534E-3,3.171267E-1,-1.8805103E-2,-2.085859E-2,6.234817E-1,4.8812613E-2,-1.5805377E-1,1.0419816E0,1.8141465E-1,-1.6970013E-1,1.0337504E-1,-8.810256E-1,-1.07547805E-1,7.1761094E-2,2.9092208E-2,-3.1100465E-2,3.9224472E-2,-4.725074E-3,-6.0601838E-2,4.3869275E-3,4.5803454E-2,-1.47630675E-2,-5.8380585E-2,-1.176863E-2,3.1232173E-3],"categories":[],"categories_nodes":[],"categories_segments":[],"categories_sizes":[],"default_left":[0,0,0,0,0,0,0,0,0,0,0,0,0,0,0,0,0,0,0,0,0,0,0,0,0],"id":26,"left_children":[1,3,5,-1,7,9,11,13,15,17,19,21,23,-1,-1,-1,-1,-1,-1,-1,-1,-1,-1,-1,-1],"loss_changes":[3.8265803E0,8.2756195E0,6.610445E0,0E0,4.536538E0,5.6545153E0,8.283501E0,1.5009928E0,7.093251E0,7.319792E0,4.7352133E0,2.147049E0,4.7002296E0,0E0,0E0,0E0,0E0,0E0,0E0,0E0,0E0,0E0,0E0,0E0,0E0],"parents":[2147483647,0,0,1,1,2,2,4,4,5,5,6,6,7,7,8,8,9,9,10,10,11,11,12,12],"right_children":[2,4,6,-1,8,10,12,14,16,18,20,22,24,-1,-1,-1,-1,-1,-1,-1,-1,-1,-1,-1,-1],"split_conditions":[-8.7703936E-2,-1.23093255E-1,3.9465677E-2,-2.085859E-2,-1.7617063E-1,1.96609E-2,-1.4530984E-1,6.947313E-2,-1.4071362E-1,5.7789057E-2,3.0009277E-2,2.8685153E-1,1.0335519E0,7.1761094E-2,2.9092208E-2,-3.1100465E-2,3.9224472E-2,-4.725074E-3,-6.0601838E-2,4.3869275E-3,4.5803454E-2,-1.47630675E-2,-5.8380585E-2,-1.176863E-2,3.1232173E-3],"split_indices":[11,11,4,0,3,4,3,4,3,3,5,0,8,0,0,0,0,0,0,0,0,0,0,0,0],"split_type":[0,0,0,0,0,0,0,0,0,0,0,0,0,0,0,0,0,0,0,0,0,0,0,0,0],"sum_hessian":[7.3488007E2,3.4631504E1,7.002486E2,1.0088581E1,2.4542923E1,4.7179785E2,2.2845073E2,1.1910407E1,1.2632517E1,9.384704E1,3.779508E2,1.3843453E1,2.1460727E2,5.2794194E0,6.6309876E0,5.4030747E0,7.2294416E0,8.854937E1,5.29767E0,3.7190323E2,6.047578E0,5.2148657E0,8.628588E0,1.222833E2,9.2323975E1],"tree_param":{"num_deleted":"0","num_feature":"31","num_nodes":"25","size_leaf_vector":"1"}},{"base_weights":[3.338611E-2,-1.6267645E-1,7.118019E-2,-1.1392464E-1,-5.1606238E-2,3.6929628E-1,4.673439E-2,-4.6749342E-2,-6.78981E-2,4.520721E-2,8.588262E-1,4.055515E-1,2.6996521E-2,-1.1699722E-2,7.181298E-3,-1.4422037E-2,3.8975254E-2,5.7303257E-2,8.7092435E-3,4.6090048E-2,7.6020844E-3,-5.175891E-3,4.9287793E-3],"categories":[],"categories_nodes":[],"categories_segments":[],"categories_sizes":[],"default_left":[0,0,0,0,0,0,0,0,0,0,0,0,0,0,0,0,0,0,0,0,0,0,0],"id":27,"left_children":[1,3,5,7,-1,9,11,-1,13,15,17,19,21,-1,-1,-1,-1,-1,-1,-1,-1,-1,-1],"loss_changes":[5.5756598E0,5.039112E0,4.5756645E0,4.332386E0,0E0,7.5158362E0,4.122363E0,0E0,3.9413311E0,7.502693E0,3.5195494E0,3.832965E0,5.1881013E0,0E0,0E0,0E0,0E0,0E0,0E0,0E0,0E0,0E0,0E0],"parents":[2147483647,0,0,1,1,2,2,3,3,5,5,6,6,8,8,9,9,10,10,11,11,12,12],"right_children":[2,4,6,8,-1,10,12,-1,14,16,18,20,22,-1,-1,-1,-1,-1,-1,-1,-1,-1,-1],"split_conditions":[5.5634123E-1,5.47932E-1,6.248525E-1,-1.6874826E-1,-5.1606238E-2,2.0952245E-2,1.1674346E-2,-4.6749342E-2,5.9619737E-3,5.929557E-1,1.31620765E-2,-6.6279494E-3,1.6973281E-2,-1.1699722E-2,7.181298E-3,-1.4422037E-2,3.8975254E-2,5.7303257E-2,8.7092435E-3,4.6090048E-2,7.6020844E-3,-5.175891E-3,4.9287793E-3],"split_indices":[9,9,8,3,0,5,5,0,6,8,2,6,5,0,0,0,0,0,0,0,0,0,0],"split_type":[0,0,0,0,0,0,0,0,0,0,0,0,0,0,0,0,0,0,0,0,0,0,0],"sum_hessian":[7.4988763E2,1.20656944E2,6.292307E2,1.1532165E2,5.3353E0,4.661802E1,5.826127E2,5.0962434E0,1.102254E2,2.8705885E1,1.7912134E1,2.935827E1,5.532544E2,6.168325E1,4.8542152E1,2.0155073E1,8.550811E0,1.2143435E1,5.7687E0,8.800568E0,2.0557703E1,1.9579805E2,3.5745636E2],"tree_param":{"num_deleted":"0","num_feature":"31","num_nodes":"23","size_leaf_vector":"1"}},{"base_weights":[4.4118557E-3,-3.0620578E-1,2.3210188E-2,-4.222468E-2,-8.401729E-1,2.9780957E-1,-1.4885562E-2,-6.1940694E-1,4.129462E-1,-5.4500233E-2,-1.962779E-2,1.01218276E-1,1.2705494E0,-2.4807952E-1,3.8539987E-2,-5.364072E-2,-7.578723E-3,5.829226E-2,-2.914147E-2,1.1374994E-2,-3.385773E-2,3.325365E-2,7.6593876E-2,-8.932448E-3,-4.428376E-2,1.3264884E-2,-3.7232912E-4],"categories":[],"categories_nodes":[],"categories_segments":[],"categories_sizes":[],"default_left":[0,0,0,0,0,0,0,0,0,0,0,0,0,0,0,0,0,0,0,0,0,0,0,0,0,0,0],"id":28,"left_children":[1,3,5,7,9,11,13,15,17,-1,-1,19,21,23,25,-1,-1,-1,-1,-1,-1,-1,-1,-1,-1,-1,-1],"loss_changes":[4.335754E0,5.9375095E0,7.3266306E0,7.9819736E0,1.133872E0,1.6187788E1,7.679333E0,2.6726837E0,1.3456418E1,0E0,0E0,7.2375555E0,1.2372189E0,4.9276314E0,5.2340107E0,0E0,0E0,0E0,0E0,0E0,0E0,0E0,0E0,0E0,0E0,0E0,0E0],"parents":[2147483647,0,0,1,1,2,2,3,3,4,4,5,5,6,6,7,7,8,8,11,11,12,12,13,13,14,14],"right_children":[2,4,6,8,10,12,14,16,18,-1,-1,20,22,24,26,-1,-1,-1,-1,-1,-1,-1,-1,-1,-1,-1,-1],"split_conditions":[-1.5430963E-1,-1.7617063E-1,-8.922167E-2,-1.3158253E-1,2.53467E-2,-5.4365275E-3,-4.0820885E-2,1.0391097E0,-8.7703936E-2,-5.4500233E-2,-1.962779E-2,-6.915795E-3,2.0397024E-2,3.189749E-2,-1.45828E-2,-5.364072E-2,-7.578723E-3,5.829226E-2,-2.914147E-2,1.1374994E-2,-3.385773E-2,3.325365E-2,7.6593876E-2,-8.932448E-3,-4.428376E-2,1.3264884E-2,-3.7232912E-4],"split_indices":[17,17,17,7,5,7,17,8,11,0,0,1,5,7,17,0,0,0,0,0,0,0,0,0,0,0,0],"split_type":[0,0,0,0,0,0,0,0,0,0,0,0,0,0,0,0,0,0,0,0,0,0,0,0,0,0,0],"sum_hessian":[7.403218E2,4.137446E1,6.989473E2,2.8408852E1,1.2965607E1,8.432241E1,6.146249E2,1.2366549E1,1.6042303E1,7.4001694E0,5.5654373E0,7.106432E1,1.3258087E1,1.13886246E2,5.0073865E2,5.6233907E0,6.7431583E0,9.037967E0,7.004335E0,6.1753315E1,9.311005E0,5.0658627E0,8.1922245E0,1.03856995E2,1.0029248E1,8.362391E1,4.1711475E2],"tree_param":{"num_deleted":"0","num_feature":"31","num_nodes":"27","size_leaf_vector":"1"}},{"base_weights":[-3.920062E-2,-6.850794E-2,1.9377299E-1,-3.9180525E-2,-5.0954574E-1,5.050623E-1,-7.4704595E-2,-1.6858047E-2,-3.808816E-1,7.431665E-2,-7.238657E-1,1.4059938E-1,7.332926E-2,3.2679167E-2,-2.7045724E-1,-3.5574788E-3,7.6863505E-3,-3.43786E-2,-7.4875355E-3,-2.3640422E-2,3.0459484E-2,-4.7739245E-2,-1.83686E-2,-1.3716041E-2,2.3636572E-2,-2.5967354E-2,-8.049141E-4],"categories":[],"categories_nodes":[],"categories_segments":[],"categories_sizes":[],"default_left":[0,0,0,0,0,0,0,0,0,0,0,0,0,0,0,0,0,0,0,0,0,0,0,0,0,0,0],"id":29,"left_children":[1,3,5,7,9,11,13,15,17,19,21,23,-1,-1,25,-1,-1,-1,-1,-1,-1,-1,-1,-1,-1,-1,-1],"loss_changes":[5.056342E0,8.475564E0,6.9570904E0,4.699378E0,5.167881E0,1.3274686E1,6.63842E0,5.383957E0,2.5754857E0,3.764814E0,2.1179228E0,4.1262617E0,0E0,0E0,2.297931E0,0E0,0E0,0E0,0E0,0E0,0E0,0E0,0E0,0E0,0E0,0E0,0E0],"parents":[2147483647,0,0,1,1,2,2,3,3,4,4,5,5,6,6,7,7,8,8,9,9,10,10,11,11,14,14],"right_children":[2,4,6,8,10,12,14,16,18,20,22,24,-1,-1,26,-1,-1,-1,-1,-1,-1,-1,-1,-1,-1,-1,-1],"split_conditions":[6.9894886E-1,1.0131363E-1,7.581471E-1,6.466385E-1,5.780521E-1,1.4110507E-1,6.712612E-2,5.4835397E-1,4.3165777E-2,1.34949535E-2,6.0287394E-2,8.9821273E-1,7.332926E-2,3.2679167E-2,8.213658E-1,-3.5574788E-3,7.6863505E-3,-3.43786E-2,-7.4875355E-3,-2.3640422E-2,3.0459484E-2,-4.7739245E-2,-1.83686E-2,-1.3716041E-2,2.3636572E-2,-2.5967354E-2,-8.049141E-4],"split_indices":[0,3,0,0,0,3,3,0,7,14,2,8,0,0,0,0,0,0,0,0,0,0,0,0,0,0,0],"split_type":[0,0,0,0,0,0,0,0,0,0,0,0,0,0,0,0,0,0,0,0,0,0,0,0,0,0,0],"sum_hessian":[7.376044E2,6.558114E2,8.179301E1,6.159423E2,3.986909E1,3.7468513E1,4.4324493E1,5.7915674E2,3.678553E1,1.0880652E1,2.898844E1,2.8001022E1,9.467492E0,8.894421E0,3.5430073E1,4.3977423E2,1.3938254E2,1.4960048E1,2.1825483E1,5.436084E0,5.444569E0,1.6574213E1,1.24142275E1,1.2526363E1,1.5474659E1,1.7381E1,1.804907E1],"tree_param":{"num_deleted":"0","num_feature":"31","num_nodes":"27","size_leaf_vector":"1"}},{"base_weights":[2.7064143E-2,-3.803671E-1,4.6765503E-2,8.387416E-2,-6.546342E-1,6.863423E-2,-2.8020948E-1,-2.2267293E-2,2.582309E-2,-1.0429559E-2,-8.5357857E-1,5.632103E-2,4.8316516E-2,-8.1441826E-1,-2.716399E-2,-5.2837092E-2,-2.5600506E-2,2.1940821E-3,3.5127163E-2,-6.2289774E-2,-1.9663734E-2,-2.1207204E-2,1.659621E-2],"categories":[],"categories_nodes":[],"categories_segments":[],"categories_sizes":[],"default_left":[0,0,0,0,0,0,0,0,0,0,0,0,0,0,0,0,0,0,0,0,0,0,0],"id":30,"left_children":[1,3,5,7,9,11,13,-1,-1,-1,15,17,-1,19,21,-1,-1,-1,-1,-1,-1,-1,-1],"loss_changes":[6.0198765E0,4.460244E0,5.125732E0,3.374584E0,1.7620354E0,7.3533883E0,6.0563145E0,0E0,0E0,0E0,4.857006E-1,5.2921076E0,0E0,2.1295414E0,4.6378407E0,0E0,0E0,0E0,0E0,0E0,0E0,0E0,0E0],"parents":[2147483647,0,0,1,1,2,2,3,3,4,4,5,5,6,6,10,10,11,11,13,13,14,14],"right_children":[2,4,6,8,10,12,14,-1,-1,-1,16,18,-1,20,22,-1,-1,-1,-1,-1,-1,-1,-1],"split_conditions":[4.1105863E-1,-3.2791626E-2,4.30923E-2,-1.9284412E-2,3.3148378E-1,1.2915714E-1,6.7211765E-1,-2.2267293E-2,2.582309E-2,-1.0429559E-2,1.7512206E-2,7.7484675E-2,4.8316516E-2,8.69448E-1,8.366087E-2,-5.2837092E-2,-2.5600506E-2,2.1940821E-3,3.5127163E-2,-6.2289774E-2,-1.9663734E-2,-2.1207204E-2,1.659621E-2],"split_indices":[9,3,1,1,8,7,13,0,0,0,5,14,0,9,14,0,0,0,0,0,0,0,0],"split_type":[0,0,0,0,0,0,0,0,0,0,0,0,0,0,0,0,0,0,0,0,0,0,0],"sum_hessian":[7.467422E2,3.3598866E1,7.131434E2,1.2735746E1,2.086312E1,6.6917755E2,4.3965797E1,5.714831E0,7.020915E0,7.067017E0,1.3796102E1,6.611714E2,8.00618E0,1.3418758E1,3.054704E1,7.337815E0,6.458287E0,6.497323E2,1.1439048E1,5.66153E0,7.7572284E0,1.442201E1,1.6125029E1],"tree_param":{"num_deleted":"0","num_feature":"31","num_nodes":"23","size_leaf_vector":"1"}},{"base_weights":[-5.443793E-3,1.8184716E-2,-2.9682004E-1,-4.148741E-2,1.1583099E-1,-4.9420848E-1,1.4470285E-1,-5.507008E-2,-2.2803383E-2,-8.159354E-3,4.6056727E-1,-3.9264593E-2,-6.595774E-1,4.7951972E-1,-2.6866822E-2,4.204183E-3,-7.7047492E-3,-6.649293E-3,1.366002E-2,5.6069613E-2,1.313284E-2,-2.1564348E-2,1.7438918E-2,-4.654791E-2,6.2623614E-4,-9.831841E-4,5.0131947E-2],"categories":[],"categories_nodes":[],"categories_segments":[],"categories_sizes":[],"default_left":[0,0,0,0,0,0,0,0,0,0,0,0,0,0,0,0,0,0,0,0,0,0,0,0,0,0,0],"id":31,"left_children":[1,3,5,7,9,11,13,-1,15,17,19,21,23,25,-1,-1,-1,-1,-1,-1,-1,-1,-1,-1,-1,-1,-1],"loss_changes":[5.1537933E0,4.0406733E0,4.965044E0,8.503336E0,1.1244947E1,2.9103956E0,4.395671E0,0E0,5.966132E0,6.864029E0,8.806047E0,1.8949571E0,5.221057E0,3.3315465E0,0E0,0E0,0E0,0E0,0E0,0E0,0E0,0E0,0E0,0E0,0E0,0E0,0E0],"parents":[2147483647,0,0,1,1,2,2,3,3,4,4,5,5,6,6,8,8,9,9,10,10,11,11,12,12,13,13],"right_children":[2,4,6,8,10,12,14,-1,16,18,20,22,24,26,-1,-1,-1,-1,-1,-1,-1,-1,-1,-1,-1,-1,-1],"split_conditions":[6.6233724E-2,1.9897131E-2,1.2097019E0,-9.460764E-2,3.9722744E-2,2.2287512E-1,4.3165777E-2,-5.507008E-2,1.331385E-2,4.6317365E-2,2.104284E-2,-2.0501131E-1,1.5351574E-1,2.3894462E-1,-2.6866822E-2,4.204183E-3,-7.7047492E-3,-6.649293E-3,1.366002E-2,5.6069613E-2,1.313284E-2,-2.1564348E-2,1.7438918E-2,-4.654791E-2,6.2623614E-4,-9.831841E-4,5.0131947E-2],"split_indices":[4,5,9,7,3,0,7,0,7,4,5,3,3,0,0,0,0,0,0,0,0,0,0,0,0,0,0],"split_type":[0,0,0,0,0,0,0,0,0,0,0,0,0,0,0,0,0,0,0,0,0,0,0,0,0,0,0],"sum_hessian":[7.4679315E2,6.9164343E2,5.5149696E1,4.2965454E2,2.6198892E2,3.8029015E1,1.7120682E1,6.438875E0,4.2321567E2,1.9340413E2,6.858479E1,1.0468028E1,2.7560986E1,1.1682573E1,5.438108E0,2.3348805E2,1.897276E2,1.3433372E2,5.9070404E1,1.4731155E1,5.3853634E1,5.151877E0,5.3161507E0,1.935906E1,8.201925E0,6.4705243E0,5.212049E0],"tree_param":{"num_deleted":"0","num_feature":"31","num_nodes":"27","size_leaf_vector":"1"}},{"base_weights":[-9.27486E-3,-1.1439449E-1,5.417188E-2,-2.5735897E-1,1.5827337E-2,4.9507737E-1,2.145674E-2,-2.09357E-1,-5.2810073E-2,1.2442864E-1,-5.196534E-1,1.0743037E0,4.738944E-3,5.6931224E-2,-3.3341926E-1,1.7552046E-2,-1.2820913E-2,1.676854E-2,-1.0422958E-2,-4.693864E-2,-1.437444E-2,3.3459354E-2,6.819625E-2,-1.3609593E-2,2.97207E-2,-5.511778E-4,1.5832452E-2,-3.700165E-2,-2.5739493E-3],"categories":[],"categories_nodes":[],"categories_segments":[],"categories_sizes":[],"default_left":[0,0,0,0,0,0,0,0,0,0,0,0,0,0,0,0,0,0,0,0,0,0,0,0,0,0,0,0,0],"id":32,"left_children":[1,3,5,7,9,11,13,15,-1,17,19,21,23,25,27,-1,-1,-1,-1,-1,-1,-1,-1,-1,-1,-1,-1,-1,-1],"loss_changes":[4.9526887E0,5.207077E0,6.6704793E0,4.8895283E0,8.624758E0,9.068952E0,5.460412E0,3.438593E0,0E0,8.719939E0,2.16397E0,8.052864E-1,3.1512294E0,6.953845E0,4.4818187E0,0E0,0E0,0E0,0E0,0E0,0E0,0E0,0E0,0E0,0E0,0E0,0E0,0E0,0E0],"parents":[2147483647,0,0,1,1,2,2,3,3,4,4,5,5,6,6,7,7,9,9,10,10,11,11,12,12,13,13,14,14],"right_children":[2,4,6,8,10,12,14,16,-1,18,20,22,24,26,28,-1,-1,-1,-1,-1,-1,-1,-1,-1,-1,-1,-1,-1,-1],"split_conditions":[1.7011533E-2,5.175137E-1,1.7597303E-2,1.50073115E-2,1.4233315E0,1.0006463E-2,4.039162E-2,-5.1368214E-2,-5.2810073E-2,5.674857E-2,3.300586E-3,-3.9034184E-2,2.9416557E-2,5.532584E-2,7.4947715E-2,1.7552046E-2,-1.2820913E-2,1.676854E-2,-1.0422958E-2,-4.693864E-2,-1.437444E-2,3.3459354E-2,6.819625E-2,-1.3609593E-2,2.97207E-2,-5.511778E-4,1.5832452E-2,-3.700165E-2,-2.5739493E-3],"split_indices":[18,0,18,2,8,3,1,6,0,3,1,3,6,3,6,0,0,0,0,0,0,0,0,0,0,0,0,0,0],"split_type":[0,0,0,0,0,0,0,0,0,0,0,0,0,0,0,0,0,0,0,0,0,0,0,0,0,0,0,0,0],"sum_hessian":[7.406588E2,2.7847452E2,4.6218433E2,1.3227722E2,1.4619731E2,3.094895E1,4.3123538E2,1.2596984E2,6.3073792E0,1.2218458E2,2.4012726E1,1.3642459E1,1.730649E1,3.928086E2,3.8426765E1,9.258764E0,1.16711075E2,7.478675E1,4.739783E1,7.474921E0,1.6537804E1,7.067347E0,6.575112E0,1.2142416E1,5.1640744E0,3.121045E2,8.070412E1,1.5069204E1,2.3357563E1],"tree_param":{"num_deleted":"0","num_feature":"31","num_nodes":"29","size_leaf_vector":"1"}},{"base_weights":[7.983296E-3,2.5777306E-2,-3.7369135E-1,-1.4051509E-1,6.404507E-2,-6.954757E-1,2.2475448E-1,-6.777902E-2,-6.9007456E-1,-5.345243E-1,7.815829E-2,-8.732298E-1,-6.2580737E-3,2.8919965E-2,-4.685222E-3,-6.108535E-3,2.872386E-2,-5.840344E-2,4.5342324E-3,-5.809152E-3,-4.7368817E-2,2.296357E-2,2.114481E-3,-2.9732341E-2,-6.0225535E-2],"categories":[],"categories_nodes":[],"categories_segments":[],"categories_sizes":[],"default_left":[0,0,0,0,0,0,0,0,0,0,0,0,0,0,0,0,0,0,0,0,0,0,0,0,0],"id":33,"left_children":[1,3,5,7,9,11,13,15,17,19,21,23,-1,-1,-1,-1,-1,-1,-1,-1,-1,-1,-1,-1,-1],"loss_changes":[5.080797E0,4.5549607E0,6.5737724E0,5.3076563E0,4.9534063E0,2.1124945E0,1.4517031E0,4.2413707E0,5.908354E0,2.2250967E0,7.7573547E0,8.1032944E-1,0E0,0E0,0E0,0E0,0E0,0E0,0E0,0E0,0E0,0E0,0E0,0E0,0E0],"parents":[2147483647,0,0,1,1,2,2,3,3,4,4,5,5,6,6,7,7,8,8,9,9,10,10,11,11],"right_children":[2,4,6,8,10,12,14,16,18,20,22,24,-1,-1,-1,-1,-1,-1,-1,-1,-1,-1,-1,-1,-1],"split_conditions":[1.9539467E0,-5.8417913E-2,2.3618066E0,-1.1545924E-2,-1.4530984E-1,1.564482E-2,-2.371875E-2,-1.7780384E-2,-2.987603E-2,-6.3282354E-3,-3.1369522E-2,4.904919E-1,-6.2580737E-3,2.8919965E-2,-4.685222E-3,-6.108535E-3,2.872386E-2,-5.840344E-2,4.5342324E-3,-5.809152E-3,-4.7368817E-2,2.296357E-2,2.114481E-3,-2.9732341E-2,-6.0225535E-2],"split_indices":[9,7,9,1,3,1,3,1,3,1,2,13,0,0,0,0,0,0,0,0,0,0,0,0,0],"split_type":[0,0,0,0,0,0,0,0,0,0,0,0,0,0,0,0,0,0,0,0,0,0,0,0,0],"sum_hessian":[7.456904E2,7.133652E2,3.2325256E1,1.3295183E2,5.804134E2,2.091638E1,1.1408876E1,1.18403984E2,1.4547837E1,1.2520494E1,5.678929E2,1.5541352E1,5.375027E0,5.0190434E0,6.3898325E0,1.09906E2,8.497989E0,8.715804E0,5.832033E0,6.8553805E0,5.6651134E0,4.7834606E1,5.200583E2,9.960387E0,5.580965E0],"tree_param":{"num_deleted":"0","num_feature":"31","num_nodes":"25","size_leaf_vector":"1"}},{"base_weights":[-1.9284487E-3,-1.5810855E-1,3.3758566E-2,-3.4295437E-1,2.6118008E-2,4.1032815E-1,1.1150872E-2,-4.709955E-1,2.4042612E-2,7.358172E-1,-1.3359436E-1,9.697883E-1,-1.8941881E-2,-2.881251E-1,3.784149E-2,5.1701865E-3,-2.9560203E-2,1.4100335E-2,5.2150782E-2,-3.268295E-2,1.5430576E-3,2.0846073E-2,7.5394325E-2,-2.6294822E-2,1.6894989E-2,-3.627949E-3,-5.457684E-2,6.1276346E-3,-3.9902637E-3],"categories":[],"categories_nodes":[],"categories_segments":[],"categories_sizes":[],"default_left":[0,0,0,0,0,0,0,0,0,0,0,0,0,0,0,0,0,0,0,0,0,0,0,0,0,0,0,0,0],"id":34,"left_children":[1,3,5,7,9,11,13,15,-1,17,19,21,23,25,27,-1,-1,-1,-1,-1,-1,-1,-1,-1,-1,-1,-1,-1,-1],"loss_changes":[4.114441E0,4.684581E0,5.1114635E0,7.463193E0,7.998135E0,8.185431E0,4.547487E0,4.195918E0,0E0,1.5121756E0,4.95842E0,3.7694206E0,3.8361213E0,7.994738E0,5.2151737E0,0E0,0E0,0E0,0E0,0E0,0E0,0E0,0E0,0E0,0E0,0E0,0E0,0E0,0E0],"parents":[2147483647,0,0,1,1,2,2,3,3,4,4,5,5,6,6,7,7,9,9,10,10,11,11,12,12,13,13,14,14],"right_children":[2,4,6,8,10,12,14,16,-1,18,20,22,24,26,28,-1,-1,-1,-1,-1,-1,-1,-1,-1,-1,-1,-1,-1,-1],"split_conditions":[5.8873266E-1,-2.0000073E-3,6.248525E-1,2.356958E-2,-2.1626912E-2,-1.1108808E-2,6.9117534E-1,3.9230752E-1,2.4042612E-2,-5.124362E-2,4.1900417E-1,2.0952245E-2,1.6283887E-2,6.7332995E-1,1.331385E-2,5.1701865E-3,-2.9560203E-2,1.4100335E-2,5.2150782E-2,-3.268295E-2,1.5430576E-3,2.0846073E-2,7.5394325E-2,-2.6294822E-2,1.6894989E-2,-3.627949E-3,-5.457684E-2,6.1276346E-3,-3.9902637E-3],"split_indices":[9,7,8,3,3,2,9,8,0,3,9,18,6,9,7,0,0,0,0,0,0,0,0,0,0,0,0,0,0],"split_type":[0,0,0,0,0,0,0,0,0,0,0,0,0,0,0,0,0,0,0,0,0,0,0,0,0,0,0,0,0],"sum_hessian":[7.3624384E2,1.3630228E2,5.999416E2,6.760672E1,6.869556E1,3.3006824E1,5.6693475E2,5.8883022E1,8.723696E0,1.1956852E1,5.673871E1,1.3783663E1,1.9223164E1,4.561941E1,5.2131537E2,1.0214466E1,4.8668556E1,5.600895E0,6.3559575E0,1.291677E1,4.3821938E1,7.673925E0,6.109738E0,7.745543E0,1.1477621E1,3.682822E1,8.791192E0,3.030578E2,2.1825755E2],"tree_param":{"num_deleted":"0","num_feature":"31","num_nodes":"29","size_leaf_vector":"1"}},{"base_weights":[-5.128175E-2,-4.313774E-1,-3.272072E-2,-1.8158199E-1,-4.8009377E-2,-2.3499462E-1,-3.6977867E-3,1.6307087E-1,-5.944862E-1,-1.6100726E-1,-5.926491E-2,7.603366E-2,-1.1831474E-1,2.5716243E-2,-1.4780493E-2,-5.546343E-2,8.0755027E-4,-1.7099284E-2,7.565924E-3,1.1079477E-2,-3.1892234E-3,-1.7904632E-2,-2.1061872E-4],"categories":[],"categories_nodes":[],"categories_segments":[],"categories_sizes":[],"default_left":[0,0,0,0,0,0,0,0,0,0,0,0,0,0,0,0,0,0,0,0,0,0,0],"id":35,"left_children":[1,3,5,7,-1,9,11,13,15,17,-1,19,21,-1,-1,-1,-1,-1,-1,-1,-1,-1,-1],"loss_changes":[5.275324E0,4.425878E0,4.2020073E0,3.6383991E0,0E0,6.1242495E0,5.7398353E0,2.463798E0,3.6445503E0,4.8272924E0,0E0,7.5531583E0,7.0478916E0,0E0,0E0,0E0,0E0,0E0,0E0,0E0,0E0,0E0,0E0],"parents":[2147483647,0,0,1,1,2,2,3,3,5,5,6,6,7,7,8,8,9,9,11,11,12,12],"right_children":[2,4,6,8,-1,10,12,14,16,18,-1,20,22,-1,-1,-1,-1,-1,-1,-1,-1,-1,-1],"split_conditions":[4.1105863E-1,3.7156925E-2,1.96609E-2,3.8073158E-1,-4.8009377E-2,5.7789057E-2,3.9465677E-2,3.1199716E-2,-5.901229E-3,5.262404E-1,-5.926491E-2,9.040886E-1,4.6317365E-2,2.5716243E-2,-1.4780493E-2,-5.546343E-2,8.0755027E-4,-1.7099284E-2,7.565924E-3,1.1079477E-2,-3.1892234E-3,-1.7904632E-2,-2.1061872E-4],"split_indices":[9,3,4,8,0,3,4,4,6,0,0,9,4,0,0,0,0,0,0,0,0,0,0],"split_type":[0,0,0,0,0,0,0,0,0,0,0,0,0,0,0,0,0,0,0,0,0,0,0],"sum_hessian":[7.487469E2,3.382534E1,7.149215E2,2.3885746E1,9.939593E0,8.8817245E1,6.261043E2,1.3348641E1,1.0537105E1,8.348669E1,5.3305583E0,3.6944348E2,2.566608E2,7.490876E0,5.857765E0,5.274225E0,5.2628794E0,5.2797813E1,3.0688873E1,1.8072118E2,1.8872232E2,8.2066216E1,1.7459457E2],"tree_param":{"num_deleted":"0","num_feature":"31","num_nodes":"23","size_leaf_vector":"1"}},{"base_weights":[-7.520517E-3,-4.949183E-2,8.725022E-2,-3.610999E-2,-3.7062626E-2,-1.4662623E-2,3.8612202E-1,-1.1291998E-1,6.0258925E-2,3.1470993E-1,-1.2134819E-1,5.047111E-1,-1.3757628E-1,-3.4722493E-3,-3.3107318E-2,3.1900212E-2,7.02487E-4,-7.1466896E-3,3.406809E-2,-1.5831115E-3,-2.9292775E-2,1.682494E-2,4.6094745E-2,8.047493E-3,-2.017702E-2],"categories":[],"categories_nodes":[],"categories_segments":[],"categories_sizes":[],"default_left":[0,0,0,0,0,0,0,0,0,0,0,0,0,0,0,0,0,0,0,0,0,0,0,0,0],"id":36,"left_children":[1,3,5,7,-1,9,11,13,15,17,19,21,23,-1,-1,-1,-1,-1,-1,-1,-1,-1,-1,-1,-1],"loss_changes":[2.9485955E0,4.72807E0,6.936848E0,3.7444887E0,0E0,6.0349865E0,3.665371E0,6.6716824E0,5.9875383E0,7.150066E0,5.381666E0,3.017828E0,9.76143E-1,0E0,0E0,0E0,0E0,0E0,0E0,0E0,0E0,0E0,0E0,0E0,0E0],"parents":[2147483647,0,0,1,1,2,2,3,3,5,5,6,6,7,7,8,8,9,9,10,10,11,11,12,12],"right_children":[2,4,6,8,-1,10,12,14,16,18,20,22,24,-1,-1,-1,-1,-1,-1,-1,-1,-1,-1,-1,-1],"split_conditions":[2.1769373E-2,2.1590905E-2,1.2421366E0,9.162212E-3,-3.7062626E-2,2.323241E-2,1.9539467E0,2.7357556E-2,-1.3190922E-2,-4.5344797E-3,1.0735738E0,5.583458E-1,4.3158695E-1,-3.4722493E-3,-3.3107318E-2,3.1900212E-2,7.02487E-4,-7.1466896E-3,3.406809E-2,-1.5831115E-3,-2.9292775E-2,1.682494E-2,4.6094745E-2,8.047493E-3,-2.017702E-2],"split_indices":[18,18,9,6,0,18,9,2,2,6,9,13,13,0,0,0,0,0,0,0,0,0,0,0,0],"split_type":[0,0,0,0,0,0,0,0,0,0,0,0,0,0,0,0,0,0,0,0,0,0,0,0,0],"sum_hessian":[7.3920483E2,5.12646E2,2.2655885E2,5.039495E2,8.696505E0,1.6965785E2,5.6900993E1,2.8033734E2,2.2361214E2,4.1031273E1,1.2862657E2,4.642461E1,1.0476385E1,2.6081827E2,1.9519094E1,1.5611939E1,2.080002E2,1.8522373E1,2.25089E1,1.0870604E2,1.9920538E1,3.4372074E1,1.2052538E1,5.1220665E0,5.354318E0],"tree_param":{"num_deleted":"0","num_feature":"31","num_nodes":"25","size_leaf_vector":"1"}},{"base_weights":[-7.883983E-3,3.2167634E-1,-2.619705E-2,-1.7880812E-2,5.221658E-1,-1.9250742E-1,4.1703276E-2,6.5852344E-2,1.5980738E-1,-3.3424128E-2,-3.8736075E-1,7.558684E-2,-2.244883E-1,-3.6492746E-2,3.592943E-2,-5.103849E-3,5.6243993E-2,-4.780061E-3,-3.4139976E-2,1.8269023E-2,1.968283E-3,-5.1914384E-3,-4.13282E-2],"categories":[],"categories_nodes":[],"categories_segments":[],"categories_sizes":[],"default_left":[0,0,0,0,0,0,0,0,0,0,0,0,0,0,0,0,0,0,0,0,0,0,0],"id":37,"left_children":[1,3,5,-1,7,9,11,-1,13,15,17,19,21,-1,-1,-1,-1,-1,-1,-1,-1,-1,-1],"loss_changes":[4.4759016E0,5.504055E0,7.9374824E0,0E0,8.589546E0,6.302867E0,4.521642E0,0E0,1.1522755E1,9.121763E0,7.820427E0,4.6439266E0,4.0293446E0,0E0,0E0,0E0,0E0,0E0,0E0,0E0,0E0,0E0,0E0],"parents":[2147483647,0,0,1,1,2,2,4,4,5,5,6,6,8,8,9,9,10,10,11,11,12,12],"right_children":[2,4,6,-1,8,10,12,-1,14,16,18,20,22,-1,-1,-1,-1,-1,-1,-1,-1,-1,-1],"split_conditions":[1.1674346E-2,-2.225289E-2,1.6426258E-2,-1.7880812E-2,8.3348743E-4,2.7639225E-2,6.6233724E-2,6.5852344E-2,1.7816244E-2,2.6722636E-2,3.0522726E-2,3.1607196E-1,3.413129E-2,-3.6492746E-2,3.592943E-2,-5.103849E-3,5.6243993E-2,-4.780061E-3,-3.4139976E-2,1.8269023E-2,1.968283E-3,-5.1914384E-3,-4.13282E-2],"split_indices":[18,7,18,0,6,4,4,0,4,4,3,0,18,0,0,0,0,0,0,0,0,0,0],"split_type":[0,0,0,0,0,0,0,0,0,0,0,0,0,0,0,0,0,0,0,0,0,0,0],"sum_hessian":[7.39229E2,3.8043114E1,7.011859E2,8.49087E0,2.9552242E1,2.027497E2,4.9843622E2,8.428518E0,2.1123724E1,1.122651E2,9.048459E1,4.4278952E2,5.564669E1,8.031012E0,1.3092712E1,1.0684429E2,5.4208035E0,4.6191715E1,4.4292877E1,4.8185547E1,3.9460397E2,4.733327E1,8.313417E0],"tree_param":{"num_deleted":"0","num_feature":"31","num_nodes":"23","size_leaf_vector":"1"}},{"base_weights":[-1.3291643E-3,2.146291E-2,-2.9157203E-1,-3.180932E-4,2.9190364E-1,1.2720963E-1,-4.4477716E-1,3.6455818E-2,-2.979365E-1,1.13998E-3,7.715699E-1,-1.0472516E-2,2.961574E-2,-8.179233E-1,-1.870927E-1,3.9805262E-4,3.539916E-2,8.28605E-3,-2.301827E-2,-2.9661039E-2,2.0175248E-2,5.832816E-2,1.8783813E-2,-5.542899E-3,-5.6943048E-2,2.0051295E-2,-3.1953286E-2],"categories":[],"categories_nodes":[],"categories_segments":[],"categories_sizes":[],"default_left":[0,0,0,0,0,0,0,0,0,0,0,0,0,0,0,0,0,0,0,0,0,0,0,0,0,0,0],"id":38,"left_children":[1,3,5,7,9,11,13,15,17,19,21,-1,-1,23,25,-1,-1,-1,-1,-1,-1,-1,-1,-1,-1,-1,-1],"loss_changes":[4.901682E0,4.047276E0,3.5179605E0,6.9810376E0,7.1417274E0,2.5084732E0,3.6663752E0,1.0857584E1,5.359087E0,8.1041155E0,2.5839233E0,0E0,0E0,3.488449E0,6.8464985E0,0E0,0E0,0E0,0E0,0E0,0E0,0E0,0E0,0E0,0E0,0E0,0E0],"parents":[2147483647,0,0,1,1,2,2,3,3,4,4,5,5,6,6,7,7,8,8,9,9,10,10,13,13,14,14],"right_children":[2,4,6,8,10,12,14,16,18,20,22,-1,-1,24,26,-1,-1,-1,-1,-1,-1,-1,-1,-1,-1,-1,-1],"split_conditions":[6.6233724E-2,2.7544368E-2,2.2287512E-1,5.0374042E-2,5.341019E-2,-4.2529725E-2,-4.4744454E-2,4.7548886E-2,-1.0017534E-1,-6.9067016E-2,3.0009277E-2,-1.0472516E-2,2.961574E-2,-8.052946E-2,2.3827082E-2,3.9805262E-4,3.539916E-2,8.28605E-3,-2.301827E-2,-2.9661039E-2,2.0175248E-2,5.832816E-2,1.8783813E-2,-5.542899E-3,-5.6943048E-2,2.0051295E-2,-3.1953286E-2],"split_indices":[4,5,0,4,4,14,16,4,3,3,5,0,0,14,1,0,0,0,0,0,0,0,0,0,0,0,0],"split_type":[0,0,0,0,0,0,0,0,0,0,0,0,0,0,0,0,0,0,0,0,0,0,0,0,0,0,0],"sum_hessian":[7.390225E2,6.8607294E2,5.2949608E1,6.358602E2,5.021267E1,1.4227859E1,3.872175E1,5.6671423E2,6.914604E1,3.1886263E1,1.8326408E1,8.572467E0,5.655391E0,1.4929132E1,2.3792616E1,5.4461646E2,2.2097729E1,1.7933666E1,5.121238E1,1.2680579E1,1.9205683E1,8.1992E0,1.0127209E1,5.0808372E0,9.848295E0,1.0388091E1,1.3404526E1],"tree_param":{"num_deleted":"0","num_feature":"31","num_nodes":"27","size_leaf_vector":"1"}},{"base_weights":[2.4840241E-2,4.395896E-2,-2.4731757E-1,3.4046467E-2,3.4374982E-2,3.3186704E-2,-4.33092E-1,6.5858625E-2,-1.4326286E-1,-7.9510003E-1,-1.2400576E-1,1.6015467E-3,1.9068912E-2,-3.4369327E-2,-2.338555E-3,-1.7428793E-2,-5.2474655E-2,1.30695505E-2,-3.5954632E-2],"categories":[],"categories_nodes":[],"categories_segments":[],"categories_sizes":[],"default_left":[0,0,0,0,0,0,0,0,0,0,0,0,0,0,0,0,0,0,0],"id":39,"left_children":[1,3,5,7,-1,-1,9,11,13,15,17,-1,-1,-1,-1,-1,-1,-1,-1],"loss_changes":[3.7502115E0,4.2654176E0,8.29658E0,3.7501564E0,0E0,0E0,4.3671513E0,5.9966297E0,5.2811766E0,1.7012415E0,5.3973284E0,0E0,0E0,0E0,0E0,0E0,0E0,0E0,0E0],"parents":[2147483647,0,0,1,1,2,2,3,3,6,6,7,7,8,8,9,9,10,10],"right_children":[2,4,6,8,-1,-1,10,12,14,16,18,-1,-1,-1,-1,-1,-1,-1,-1],"split_conditions":[4.30923E-2,8.1900194E-2,1.5710784E-2,3.7974343E-2,3.4374982E-2,3.3186704E-2,8.370935E-2,2.5829475E-2,-4.878315E-2,6.173534E-2,7.859534E-1,1.6015467E-3,1.9068912E-2,-3.4369327E-2,-2.338555E-3,-1.7428793E-2,-5.2474655E-2,1.30695505E-2,-3.5954632E-2],"split_indices":[1,14,5,14,0,0,2,14,3,2,13,0,0,0,0,0,0,0,0],"split_type":[0,0,0,0,0,0,0,0,0,0,0,0,0,0,0,0,0,0,0],"sum_hessian":[7.1764667E2,6.7132544E2,4.632122E1,6.621788E2,9.146668E0,7.4098706E0,3.891135E1,5.619792E2,1.0019958E2,1.719721E1,2.171414E1,5.0855698E2,5.3422222E1,1.4170031E1,8.602955E1,7.1018653E0,1.0095345E1,1.3519343E1,8.194796E0],"tree_param":{"num_deleted":"0","num_feature":"31","num_nodes":"19","size_leaf_vector":"1"}},{"base_weights":[2.9328978E-2,-3.0203676E-1,4.5595583E-2,1.341137E-1,-6.151663E-1,1.8744975E-2,2.837546E-1,-2.6383398E-2,2.7676532E-2,-9.486465E-3,-9.050518E-1,8.922223E-2,-1.324402E-1,7.215086E-2,7.399067E-1,-5.4515958E-2,-2.8105794E-2,-1.7068328E-2,6.5392624E-3,-1.2870907E-2,8.585332E-3,1.1363357E-2,-5.3436965E-2,4.9048524E-2,-7.343473E-4],"categories":[],"categories_nodes":[],"categories_segments":[],"categories_sizes":[],"default_left":[0,0,0,0,0,0,0,0,0,0,0,0,0,0,0,0,0,0,0,0,0,0,0,0,0],"id":40,"left_children":[1,3,5,7,9,11,13,-1,-1,-1,15,17,19,21,23,-1,-1,-1,-1,-1,-1,-1,-1,-1,-1],"loss_changes":[3.9620585E0,4.781445E0,4.465148E0,4.5109487E0,2.3203397E0,6.717374E0,6.7766566E0,0E0,0E0,0E0,1.3381958E-1,7.7371483E0,7.665394E0,8.993264E0,4.0736322E0,0E0,0E0,0E0,0E0,0E0,0E0,0E0,0E0,0E0,0E0],"parents":[2147483647,0,0,1,1,2,2,3,3,4,4,5,5,6,6,10,10,11,11,12,12,13,13,14,14],"right_children":[2,4,6,8,10,12,14,-1,-1,-1,16,18,20,22,24,-1,-1,-1,-1,-1,-1,-1,-1,-1,-1],"split_conditions":[4.1105863E-1,4.6278155E-1,2.7544368E-2,-3.4829777E-2,3.624691E-1,3.8797628E-2,-7.918965E-3,-2.6383398E-2,2.7676532E-2,-9.486465E-3,1.34949535E-2,3.421884E-1,1.2421366E0,4.8494297E-1,5.9971284E-2,-5.4515958E-2,-2.8105794E-2,-1.7068328E-2,6.5392624E-3,-1.2870907E-2,8.585332E-3,1.1363357E-2,-5.3436965E-2,4.9048524E-2,-7.343473E-4],"split_indices":[9,0,5,6,8,4,7,0,0,0,6,0,9,0,4,0,0,0,0,0,0,0,0,0,0],"split_type":[0,0,0,0,0,0,0,0,0,0,0,0,0,0,0,0,0,0,0,0,0,0,0,0,0],"sum_hessian":[7.314943E2,3.3406437E1,6.980879E2,1.419971E1,1.9206726E1,6.2832745E2,6.9760414E1,5.408209E0,8.791501E0,8.4540415E0,1.0752686E1,4.2883118E2,1.9949629E2,4.8445347E1,2.1315065E1,5.566227E0,5.1864586E0,3.7114574E1,3.917166E2,1.4150406E2,5.7992245E1,4.335198E1,5.093369E0,1.5927E1,5.388065E0],"tree_param":{"num_deleted":"0","num_feature":"31","num_nodes":"25","size_leaf_vector":"1"}},{"base_weights":[-1.0622941E-2,-1.9659067E-2,3.2145996E-2,-2.132335E-3,-6.227391E-1,1.3643222E-2,-3.473209E-1,-6.964039E-3,-7.704183E-1,-2.119037E-3,5.101954E-3,-5.2605666E-2,-8.256263E-3,-2.0810481E-2,-5.60579E-2],"categories":[],"categories_nodes":[],"categories_segments":[],"categories_sizes":[],"default_left":[0,0,0,0,0,0,0,0,0,0,0,0,0,0,0],"id":41,"left_children":[1,3,-1,5,7,9,11,-1,13,-1,-1,-1,-1,-1,-1],"loss_changes":[4.3717237E0,7.704683E0,0E0,3.8681238E0,1.3624477E0,3.3689787E0,3.812624E0,0E0,1.4649944E0,0E0,0E0,0E0,0E0,0E0,0E0],"parents":[2147483647,0,0,1,1,3,3,4,4,5,5,6,6,8,8],"right_children":[2,4,-1,6,8,10,12,-1,14,-1,-1,-1,-1,-1,-1],"split_conditions":[2.508762E0,1.976533E0,3.2145996E-2,4.967093E-2,1.4551045E-2,5.388948E-1,4.7550265E-2,-6.964039E-3,5.080391E-1,-2.119037E-3,5.101954E-3,-5.2605666E-2,-8.256263E-3,-2.0810481E-2,-5.60579E-2],"split_indices":[9,9,0,15,5,13,12,0,13,0,0,0,0,0,0],"split_type":[0,0,0,0,0,0,0,0,0,0,0,0,0,0,0],"sum_hessian":[7.371403E2,7.2804407E2,9.096288E0,7.084584E2,1.9585705E1,6.784144E2,3.0043924E1,5.0375104E0,1.4548194E1,4.1555957E2,2.6285486E2,5.1905484E0,2.4853376E1,8.326254E0,6.2219405E0],"tree_param":{"num_deleted":"0","num_feature":"31","num_nodes":"15","size_leaf_vector":"1"}},{"base_weights":[-1.5138128E-3,5.1743545E-2,-1.0272604E-1,-4.3926024E-1,7.867117E-2,-2.208881E-1,2.2334063E-1,9.118991E-3,-7.637242E-1,5.6862015E-2,6.240106E-1,-2.6747358E-1,2.2868285E-1,4.1381174E-1,-4.7423944E-1,-2.727052E-3,-5.4262877E-2,1.5511505E-2,7.213907E-4,1.1654704E-2,4.0811595E-2,-1.5924767E-2,1.3750759E-2,3.7576247E-2,-7.3880004E-3,1.0381178E-2,4.0806837E-2,-4.1418813E-2,7.0978412E-3],"categories":[],"categories_nodes":[],"categories_segments":[],"categories_sizes":[],"default_left":[0,0,0,0,0,0,0,0,0,0,0,0,0,0,0,0,0,0,0,0,0,0,0,0,0,0,0,0,0],"id":42,"left_children":[1,3,5,7,9,11,13,-1,15,17,19,21,23,25,27,-1,-1,-1,-1,-1,-1,-1,-1,-1,-1,-1,-1,-1,-1],"loss_changes":[3.9673634E0,6.4110126E0,9.82625E0,5.2273307E0,5.4122987E0,3.9726067E0,9.230654E0,0E0,3.764225E0,4.742701E0,1.125761E0,4.784313E0,3.6685035E0,4.305558E0,3.4016998E0,0E0,0E0,0E0,0E0,0E0,0E0,0E0,0E0,0E0,0E0,0E0,0E0,0E0,0E0],"parents":[2147483647,0,0,1,1,2,2,3,3,4,4,5,5,6,6,8,8,9,9,10,10,11,11,12,12,13,13,14,14],"right_children":[2,4,6,8,10,12,14,-1,16,18,20,22,24,26,28,-1,-1,-1,-1,-1,-1,-1,-1,-1,-1,-1,-1,-1,-1],"split_conditions":[3.9465677E-2,3.0112147E-1,1.2541357E0,2.995592E-2,9.131033E-2,1.2915714E-1,7.05685E-2,9.118991E-3,6.0651654E-1,-3.0294575E-2,8.128309E-1,1.5351574E-1,4.788426E-2,-7.3097614E-3,1.2570752E-1,-2.727052E-3,-5.4262877E-2,1.5511505E-2,7.213907E-4,1.1654704E-2,4.0811595E-2,-1.5924767E-2,1.3750759E-2,3.7576247E-2,-7.3880004E-3,1.0381178E-2,4.0806837E-2,-4.1418813E-2,7.0978412E-3],"split_indices":[4,13,9,4,7,7,7,0,9,2,9,3,1,7,7,0,0,0,0,0,0,0,0,0,0,0,0,0,0],"split_type":[0,0,0,0,0,0,0,0,0,0,0,0,0,0,0,0,0,0,0,0,0,0,0,0,0,0,0,0,0],"sum_hessian":[7.340335E2,4.8127682E2,2.5275665E2,2.4225819E1,4.5705103E2,1.8576173E2,6.699492E1,8.458361E0,1.5767457E1,4.4053735E2,1.6513655E1,1.6868707E2,1.7074663E1,5.2945244E1,1.4049673E1,5.283545E0,1.0483912E1,6.2291794E1,3.7824557E2,6.1727962E0,1.0340858E1,1.5456311E2,1.4123958E1,6.7304068E0,1.0344257E1,3.600767E1,1.6937574E1,8.703379E0,5.3462944E0],"tree_param":{"num_deleted":"0","num_feature":"31","num_nodes":"29","size_leaf_vector":"1"}},{"base_weights":[7.9970073E-4,1.9985484E-2,-2.790278E-1,-3.819961E-2,2.6898636E-2,-4.5550257E-2,-1.5018676E-1,-7.156628E-2,7.830576E-2,3.672294E-2,-5.7678103E-1,-1.170858E-3,-3.8376227E-2,4.4179305E-2,2.9911825E-3,-1.8780816E-2,2.3311106E-2,-5.7940194E-3,-4.8004676E-2],"categories":[],"categories_nodes":[],"categories_segments":[],"categories_sizes":[],"default_left":[0,0,0,0,0,0,0,0,0,0,0,0,0,0,0,0,0,0,0],"id":43,"left_children":[1,3,5,-1,7,-1,9,11,13,15,17,-1,-1,-1,-1,-1,-1,-1,-1],"loss_changes":[3.9577603E0,3.7593727E0,3.714646E0,0E0,3.4718559E0,0E0,3.2494931E0,7.870529E0,6.650239E0,5.327515E0,2.0785508E0,0E0,0E0,0E0,0E0,0E0,0E0,0E0,0E0],"parents":[2147483647,0,0,1,1,2,2,4,4,6,6,7,7,8,8,9,9,10,10],"right_children":[2,4,6,-1,8,-1,10,12,14,16,18,-1,-1,-1,-1,-1,-1,-1,-1],"split_conditions":[4.30923E-2,2.8229666E-1,3.5010926E-2,-3.819961E-2,-3.7148368E-2,-4.5550257E-2,7.9441965E-1,5.4835397E-1,-3.4189068E-2,5.3491123E-2,1.7974071E-2,-1.170858E-3,-3.8376227E-2,4.4179305E-2,2.9911825E-3,-1.8780816E-2,2.3311106E-2,-5.7940194E-3,-4.8004676E-2],"split_indices":[1,9,3,0,3,0,0,0,3,1,18,0,0,0,0,0,0,0,0],"split_type":[0,0,0,0,0,0,0,0,0,0,0,0,0,0,0,0,0,0,0],"sum_hessian":[7.351517E2,6.8885065E2,4.6301018E1,5.063973E0,6.837867E2,6.8128033E0,3.9488213E1,2.3440895E2,4.4937772E2,2.8093245E1,1.139497E1,2.2020776E2,1.4201188E1,9.032148E0,4.4034555E2,1.4396953E1,1.3696292E1,5.7651644E0,5.6298056E0],"tree_param":{"num_deleted":"0","num_feature":"31","num_nodes":"19","size_leaf_vector":"1"}},{"base_weights":[-1.6901623E-2,8.200964E-3,-2.9089573E-1,-6.6709615E-2,1.1258377E-1,-1.1353462E-1,-8.311324E-1,1.6921821E-1,-1.2064126E-1,-5.191971E-1,1.5017895E-1,-2.5298488E-1,2.6230657E-2,-5.2300032E-2,-1.7045332E-2,1.2418177E-2,-3.5948545E-2,-4.8654093E-3,-2.8470427E-2,8.34055E-3,-4.4610597E-2,-2.059848E-3,1.35434065E-2,-1.8063089E-2,1.9217959E-2],"categories":[],"categories_nodes":[],"categories_segments":[],"categories_sizes":[],"default_left":[0,0,0,0,0,0,0,0,0,0,0,0,0,0,0,0,0,0,0,0,0,0,0,0,0],"id":44,"left_children":[1,3,5,7,9,11,13,15,17,19,21,23,-1,-1,-1,-1,-1,-1,-1,-1,-1,-1,-1,-1,-1],"loss_changes":[4.9679E0,5.1864934E0,5.713955E0,4.9347696E0,6.659602E0,4.2969604E0,1.204915E0,5.259444E0,3.2424679E0,4.1887064E0,6.0697637E0,2.835566E0,0E0,0E0,0E0,0E0,0E0,0E0,0E0,0E0,0E0,0E0,0E0,0E0,0E0],"parents":[2147483647,0,0,1,1,2,2,3,3,4,4,5,5,6,6,7,7,8,8,9,9,10,10,11,11],"right_children":[2,4,6,8,10,12,14,16,18,20,22,24,-1,-1,-1,-1,-1,-1,-1,-1,-1,-1,-1,-1,-1],"split_conditions":[1.7167754E0,5.388948E-1,5.946348E-1,-3.520916E-2,-3.7148368E-2,2.508762E0,7.1694714E-1,3.535686E-2,5.2922353E-2,-5.623048E-3,7.7710485E-1,2.6948644E-2,2.6230657E-2,-5.2300032E-2,-1.7045332E-2,1.2418177E-2,-3.5948545E-2,-4.8654093E-3,-2.8470427E-2,8.34055E-3,-4.4610597E-2,-2.059848E-3,1.35434065E-2,-1.8063089E-2,1.9217959E-2],"split_indices":[9,0,0,1,3,9,0,5,7,2,9,5,0,0,0,0,0,0,0,0,0,0,0,0,0],"split_type":[0,0,0,0,0,0,0,0,0,0,0,0,0,0,0,0,0,0,0,0,0,0,0,0,0],"sum_hessian":[7.2094574E2,6.6132684E2,5.9618874E1,3.8522797E2,2.7609888E2,4.5794556E1,1.3824317E1,7.1278305E1,3.1394968E2,1.4787479E1,2.613114E2,3.807733E1,7.7172256E0,8.823309E0,5.001008E0,6.6107895E1,5.1704144E0,2.9958972E2,1.4359947E1,5.4032373E0,9.384242E0,1.0131523E2,1.5999617E2,3.2918125E1,5.1592073E0],"tree_param":{"num_deleted":"0","num_feature":"31","num_nodes":"25","size_leaf_vector":"1"}},{"base_weights":[-1.3247042E-2,-3.9086685E-2,1.9294196E-1,2.6632683E-2,-1.6727343E-1,8.6411065E-1,-1.3986449E-2,9.670302E-3,5.3633418E-2,-1.35524E-1,-4.9591776E-2,1.9312633E-2,6.722187E-2,2.0884998E-1,-3.0253983E-1,-2.563953E-3,1.0929006E-2,-9.997671E-3,2.491204E-2,-6.7434474E-3,3.47021E-2,2.4747116E-2,-2.8731186E-2],"categories":[],"categories_nodes":[],"categories_segments":[],"categories_sizes":[],"default_left":[0,0,0,0,0,0,0,0,0,0,0,0,0,0,0,0,0,0,0,0,0,0,0],"id":45,"left_children":[1,3,5,7,9,11,13,15,-1,17,-1,-1,-1,19,21,-1,-1,-1,-1,-1,-1,-1,-1],"loss_changes":[3.907253E0,5.49096E0,1.1356284E1,7.644068E0,5.6477475E0,3.9024572E0,4.140888E0,5.429387E0,0E0,8.831224E0,0E0,0E0,0E0,6.1597915E0,6.369013E0,0E0,0E0,0E0,0E0,0E0,0E0,0E0,0E0],"parents":[2147483647,0,0,1,1,2,2,3,3,4,4,5,5,6,6,7,7,9,9,13,13,14,14],"right_children":[2,4,6,8,10,12,14,16,-1,18,-1,-1,-1,20,22,-1,-1,-1,-1,-1,-1,-1,-1],"split_conditions":[6.9894886E-1,1.331385E-2,2.240805E-2,1.2141394E-2,6.1328646E-2,8.673568E-3,7.7461684E-1,1.4846166E-2,5.3633418E-2,2.601745E-2,-4.9591776E-2,1.9312633E-2,6.722187E-2,1.2788856E-1,4.231879E-2,-2.563953E-3,1.0929006E-2,-9.997671E-3,2.491204E-2,-6.7434474E-3,3.47021E-2,2.4747116E-2,-2.8731186E-2],"split_indices":[0,7,6,7,4,6,0,3,0,5,0,0,0,3,4,0,0,0,0,0,0,0,0],"split_type":[0,0,0,0,0,0,0,0,0,0,0,0,0,0,0,0,0,0,0,0,0,0,0],"sum_hessian":[7.309484E2,6.502673E2,8.0681175E1,4.3040005E2,2.1986722E2,1.8264545E1,6.2416626E1,4.2452524E2,5.8748026E0,2.128364E2,7.0308194E0,1.0060199E1,8.204348E0,3.537464E1,2.7041985E1,3.2922772E2,9.529752E1,1.9381718E2,1.901922E1,2.1128706E1,1.4245935E1,6.670771E0,2.0371214E1],"tree_param":{"num_deleted":"0","num_feature":"31","num_nodes":"23","size_leaf_vector":"1"}},{"base_weights":[6.3918834E-3,-5.132942E-2,8.297647E-2,6.551231E-2,-2.0171374E-1,-1.4407403E-2,3.3661973E-1,-5.0377227E-2,9.652601E-2,-1.516458E-1,-8.7838376E-1,-9.590608E-2,2.7418265E-1,7.290459E-1,1.7266697E-3,2.9136108E-3,3.6364328E-2,-3.943898E-3,-2.5042582E-2,-5.9356946E-2,-1.7729448E-2,7.0114224E-3,-1.0043651E-2,5.6321807E-3,4.2732544E-2,5.5011094E-2,2.1944383E-2,4.131537E-2,-1.2044161E-2],"categories":[],"categories_nodes":[],"categories_segments":[],"categories_sizes":[],"default_left":[0,0,0,0,0,0,0,0,0,0,0,0,0,0,0,0,0,0,0,0,0,0,0,0,0,0,0,0,0],"id":46,"left_children":[1,3,5,7,9,11,13,-1,15,17,19,21,23,25,27,-1,-1,-1,-1,-1,-1,-1,-1,-1,-1,-1,-1,-1,-1],"loss_changes":[3.2721052E0,7.430876E0,7.8618665E0,8.028552E0,6.128591E0,5.4546733E0,1.1601458E1,0E0,5.5686216E0,4.364234E0,1.6046057E0,4.5074635E0,4.693861E0,3.895029E0,9.9290695E0,0E0,0E0,0E0,0E0,0E0,0E0,0E0,0E0,0E0,0E0,0E0,0E0,0E0,0E0],"parents":[2147483647,0,0,1,1,2,2,3,3,4,4,5,5,6,6,8,8,9,9,10,10,11,11,12,12,13,13,14,14],"right_children":[2,4,6,8,10,12,14,-1,16,18,20,22,24,26,28,-1,-1,-1,-1,-1,-1,-1,-1,-1,-1,-1,-1,-1,-1],"split_conditions":[1.9718014E-2,1.4191017E-2,4.6639588E-2,-9.460764E-2,1.9079885E-2,2.8094497E-2,4.3383215E-2,-5.0377227E-2,7.147157E-2,1.4160137E0,7.147157E-2,-8.786066E-2,-7.918965E-3,1.6071357E-2,7.974901E-2,2.9136108E-3,3.6364328E-2,-3.943898E-3,-2.5042582E-2,-5.9356946E-2,-1.7729448E-2,7.0114224E-3,-1.0043651E-2,5.6321807E-3,4.2732544E-2,5.5011094E-2,2.1944383E-2,4.131537E-2,-1.2044161E-2],"split_indices":[5,7,3,7,5,5,4,0,3,9,3,3,7,1,3,0,0,0,0,0,0,0,0,0,0,0,0,0,0],"split_type":[0,0,0,0,0,0,0,0,0,0,0,0,0,0,0,0,0,0,0,0,0,0,0,0,0,0,0,0,0],"sum_hessian":[7.382377E2,4.2114966E2,3.1708798E2,2.3732408E2,1.8382558E2,2.2980124E2,8.728675E1,5.7820287E0,2.3154205E2,1.7230086E2,1.1524721E1,1.7971646E2,5.008478E1,3.964913E1,4.7637623E1,2.1933257E2,1.2209498E1,1.4360268E2,2.869818E1,6.4539614E0,5.0707603E0,5.5200657E1,1.245158E2,4.0115158E1,9.969626E0,1.6171038E1,2.3478092E1,1.0282757E1,3.7354866E1],"tree_param":{"num_deleted":"0","num_feature":"31","num_nodes":"29","size_leaf_vector":"1"}},{"base_weights":[1.0289323E-2,-5.4724332E-2,1.0345946E-1,-7.3093794E-2,5.3983426E-1,3.397519E-1,3.0142004E-2,-5.810607E-2,-3.613488E-2,4.0893175E-2,6.1213477E-3,-3.8485397E-2,6.165321E-1,-8.776154E-2,3.06618E-1,-5.444452E-3,6.7364215E-3,3.00092E-2,-1.781751E-2,4.287715E-2,9.951902E-3,1.2081922E-2,-1.4750399E-2,3.0832985E-2,1.935748E-3],"categories":[],"categories_nodes":[],"categories_segments":[],"categories_sizes":[],"default_left":[0,0,0,0,0,0,0,0,0,0,0,0,0,0,0,0,0,0,0,0,0,0,0,0,0],"id":47,"left_children":[1,3,5,7,9,11,13,15,-1,-1,-1,17,19,21,23,-1,-1,-1,-1,-1,-1,-1,-1,-1,-1],"loss_changes":[4.473317E0,4.791252E0,5.2474318E0,4.07558E0,1.4269369E0,7.53718E0,7.6128316E0,4.0734425E0,0E0,0E0,0E0,6.561556E0,4.005251E0,1.1261603E1,5.773366E0,0E0,0E0,0E0,0E0,0E0,0E0,0E0,0E0,0E0,0E0],"parents":[2147483647,0,0,1,1,2,2,3,3,4,4,5,5,6,6,7,7,11,11,12,12,13,13,14,14],"right_children":[2,4,6,8,10,12,14,16,-1,-1,-1,18,20,22,24,-1,-1,-1,-1,-1,-1,-1,-1,-1,-1],"split_conditions":[5.388948E-1,2.1917617E0,5.7860714E-1,1.9539467E0,-2.8807638E-2,4.0541724E-3,2.0292334E-2,1.26472E0,-3.613488E-2,4.0893175E-2,6.1213477E-3,-2.7672643E-2,2.9212879E-2,1.4920374E-2,7.453094E-2,-5.444452E-3,6.7364215E-3,3.00092E-2,-1.781751E-2,4.287715E-2,9.951902E-3,1.2081922E-2,-1.4750399E-2,3.0832985E-2,1.935748E-3],"split_indices":[0,9,0,9,3,1,5,9,0,0,0,14,4,5,3,0,0,0,0,0,0,0,0,0,0],"split_type":[0,0,0,0,0,0,0,0,0,0,0,0,0,0,0,0,0,0,0,0,0,0,0,0,0],"sum_hessian":[7.365617E2,4.3407736E2,3.0248438E2,4.2191882E2,1.2158526E1,7.076954E1,2.3171483E2,4.134687E2,8.450144E0,6.7218237E0,5.4367027E0,3.0267742E1,4.0501793E1,1.6291997E2,6.879486E1,3.2762415E2,8.584452E1,9.763091E0,2.0504652E1,2.5010002E1,1.5491793E1,6.2853657E1,1.00066315E2,3.128603E1,3.750883E1],"tree_param":{"num_deleted":"0","num_feature":"31","num_nodes":"25","size_leaf_vector":"1"}},{"base_weights":[-8.660442E-3,-1.8989407E-2,4.715455E-1,-1.1608062E-3,-2.50654E-1,5.2734073E-3,3.6310017E-2,-6.453298E-2,1.040222E-1,-1.3250591E-1,-4.25406E-2,7.7110366E-3,-6.490337E-3,1.441395E-4,1.9903889E-2,-1.631956E-2,1.226425E-2],"categories":[],"categories_nodes":[],"categories_segments":[],"categories_sizes":[],"default_left":[0,0,0,0,0,0,0,0,0,0,0,0,0,0,0,0,0],"id":48,"left_children":[1,3,5,7,9,-1,-1,11,13,15,-1,-1,-1,-1,-1,-1,-1],"loss_changes":[3.6900427E0,3.004407E0,1.3838305E0,4.5160675E0,3.573097E0,0E0,0E0,6.0567546E0,7.5746746E0,3.3480546E0,0E0,0E0,0E0,0E0,0E0,0E0,0E0],"parents":[2147483647,0,0,1,1,2,2,3,3,4,4,7,7,8,8,9,9],"right_children":[2,4,6,8,10,-1,-1,12,14,16,-1,-1,-1,-1,-1,-1,-1],"split_conditions":[1.0705884E-1,6.6233724E-2,8.661986E-2,1.9897131E-2,3.413129E-2,5.2734073E-3,3.6310017E-2,-2.4825122E-2,3.9321043E-2,8.337474E-2,-4.25406E-2,7.7110366E-3,-6.490337E-3,1.441395E-4,1.9903889E-2,-1.631956E-2,1.226425E-2],"split_indices":[6,4,2,5,5,0,0,6,3,4,0,0,0,0,0,0,0],"split_type":[0,0,0,0,0,0,0,0,0,0,0,0,0,0,0,0,0],"sum_hessian":[7.4115045E2,7.264846E2,1.4665829E1,6.755038E2,5.098086E1,6.596802E0,8.069026E0,4.2177383E2,2.5372993E2,4.361544E1,7.365424E0,9.661677E1,3.2515707E2,1.8954604E2,6.41839E1,2.8913074E1,1.4702364E1],"tree_param":{"num_deleted":"0","num_feature":"31","num_nodes":"17","size_leaf_vector":"1"}},{"base_weights":[8.050109E-3,-2.0594181E-2,2.2760195E-1,2.1602364E-1,-4.8448622E-2,8.8202864E-1,3.5484616E-2,1.2284439E-1,4.920871E-2,-2.9219925E-2,-3.7238917E-1,4.530695E-1,8.2314774E-2,-1.5257032E-1,5.116671E-1,-3.6558527E-3,2.5337154E-2,-1.3760619E-2,-7.5758864E-5,-3.6978718E-2,6.098465E-3,-9.290773E-3,6.0684156E-2,2.574735E-2,-1.2221356E-2,3.8184837E-2,8.364503E-4],"categories":[],"categories_nodes":[],"categories_segments":[],"categories_sizes":[],"default_left":[0,0,0,0,0,0,0,0,0,0,0,0,0,0,0,0,0,0,0,0,0,0,0,0,0,0,0],"id":49,"left_children":[1,3,5,7,9,11,13,15,-1,17,19,21,-1,23,25,-1,-1,-1,-1,-1,-1,-1,-1,-1,-1,-1,-1],"loss_changes":[4.6654243E0,4.337303E0,1.0732639E1,4.8411093E0,3.6527748E0,5.6101103E0,6.098072E0,4.774115E0,0E0,3.7908158E0,6.0570474E0,6.930348E0,0E0,3.1281347E0,2.3899956E0,0E0,0E0,0E0,0E0,0E0,0E0,0E0,0E0,0E0,0E0,0E0,0E0],"parents":[2147483647,0,0,1,1,2,2,3,3,4,4,5,5,6,6,7,7,9,9,10,10,11,11,13,13,14,14],"right_children":[2,4,6,8,10,12,14,16,-1,18,20,22,-1,24,26,-1,-1,-1,-1,-1,-1,-1,-1,-1,-1,-1,-1],"split_conditions":[6.9894886E-1,-4.031035E-2,2.1511663E-2,-4.2529725E-2,1.0786888E-1,5.7491872E-2,7.7484675E-2,1.1178265E0,4.920871E-2,3.0964082E-1,2.5625627E-2,9.162212E-3,8.2314774E-2,3.9722744E-2,7.9441965E-1,-3.6558527E-3,2.5337154E-2,-1.3760619E-2,-7.5758864E-5,-3.6978718E-2,6.098465E-3,-9.290773E-3,6.0684156E-2,2.574735E-2,-1.2221356E-2,3.8184837E-2,8.364503E-4],"split_indices":[0,10,6,6,3,4,6,9,0,0,10,6,0,3,0,0,0,0,0,0,0,0,0,0,0,0,0],"split_type":[0,0,0,0,0,0,0,0,0,0,0,0,0,0,0,0,0,0,0,0,0,0,0,0,0,0,0],"sum_hessian":[7.4010455E2,6.554908E2,8.461378E1,6.832535E1,5.871654E2,1.838754E1,6.622624E1,6.1968304E1,6.3570423E0,5.5529407E2,3.1871342E1,1.2797512E1,5.5900283E0,4.7963856E1,1.8262386E1,4.156232E1,2.0405985E1,5.530482E1,4.9998926E2,1.8003326E1,1.3868015E1,7.3660383E0,5.4314737E0,5.244735E0,4.271912E1,1.174079E1,6.521595E0],"tree_param":{"num_deleted":"0","num_feature":"31","num_nodes":"27","size_leaf_vector":"1"}},{"base_weights":[-1.227284E-2,-3.3307004E-1,2.1774322E-3,-1.4423265E-1,-3.7677288E-2,3.900895E-2,-7.0350016E-3,-2.6007552E-2,7.227087E-2,1.5699252E-2,-1.8559597E-1,2.5065864E-2,-9.472808E-3,-4.8381946E-5,2.489065E-2,-2.5025118E-2,1.908969E-3],"categories":[],"categories_nodes":[],"categories_segments":[],"categories_sizes":[],"default_left":[0,0,0,0,0,0,0,0,0,0,0,0,0,0,0,0,0],"id":50,"left_children":[1,3,5,7,-1,-1,9,-1,11,13,15,-1,-1,-1,-1,-1,-1],"loss_changes":[3.3945777E0,2.397511E0,5.0337944E0,1.9109855E0,0E0,0E0,2.8215702E0,0E0,1.8337303E0,4.957057E0,5.550667E0,0E0,0E0,0E0,0E0,0E0,0E0],"parents":[2147483647,0,0,1,1,2,2,3,3,6,6,8,8,9,9,10,10],"right_children":[2,4,6,8,-1,-1,10,-1,12,14,16,-1,-1,-1,-1,-1,-1],"split_conditions":[4.1105863E-1,3.7156925E-2,3.9230752E-1,-3.4829777E-2,-3.7677288E-2,3.900895E-2,1.0131363E-1,-2.6007552E-2,-7.170814E-3,3.226568E-2,1.8541344E-2,2.5065864E-2,-9.472808E-3,-4.8381946E-5,2.489065E-2,-2.5025118E-2,1.908969E-3],"split_indices":[9,3,8,6,0,0,3,0,1,5,5,0,0,0,0,0,0],"split_type":[0,0,0,0,0,0,0,0,0,0,0,0,0,0,0,0,0],"sum_hessian":[7.3112695E2,3.0563581E1,7.0056335E2,2.2018158E1,8.5454235E0,7.2190375E0,6.933443E2,7.534092E0,1.4484065E1,6.1584717E2,7.749714E1,5.1410217E0,9.343043E0,5.962331E2,1.9614058E1,3.1679602E1,4.5817535E1],"tree_param":{"num_deleted":"0","num_feature":"31","num_nodes":"17","size_leaf_vector":"1"}},{"base_weights":[2.839361E-2,1.0024049E-1,-1.9322721E-2,1.6693208E-2,4.064119E-1,-4.9481496E-1,8.026674E-3,-3.7723055E-1,8.557932E-2,-1.02099925E-1,5.5188346E-1,8.365828E-3,-6.8680453E-1,-8.745387E-2,1.9276638E-1,2.4907181E-2,-2.8000003E-2,1.3771509E-2,-6.0048485E-3,2.4841195E-2,-3.007768E-2,1.5237334E-2,6.1927807E-2,-4.800926E-2,-2.1685641E-3,-9.85068E-4,-1.6594132E-2,2.0895327E-2,-1.1142025E-3],"categories":[],"categories_nodes":[],"categories_segments":[],"categories_sizes":[],"default_left":[0,0,0,0,0,0,0,0,0,0,0,0,0,0,0,0,0,0,0,0,0,0,0,0,0,0,0,0,0],"id":51,"left_children":[1,3,5,7,9,11,13,15,17,19,21,-1,23,25,27,-1,-1,-1,-1,-1,-1,-1,-1,-1,-1,-1,-1,-1,-1],"loss_changes":[2.5094426E0,7.4641304E0,5.730562E0,6.2869396E0,4.684843E0,3.1616344E0,7.379225E0,5.797453E0,7.72556E0,4.714611E0,7.905286E0,0E0,3.2610016E0,4.561871E0,6.910167E0,0E0,0E0,0E0,0E0,0E0,0E0,0E0,0E0,0E0,0E0,0E0,0E0,0E0,0E0],"parents":[2147483647,0,0,1,1,2,2,3,3,4,4,5,5,6,6,7,7,8,8,9,9,10,10,12,12,13,13,14,14],"right_children":[2,4,6,8,10,12,14,16,18,20,22,-1,24,26,28,-1,-1,-1,-1,-1,-1,-1,-1,-1,-1,-1,-1,-1,-1],"split_conditions":[-1.14604095E-2,-5.901229E-3,-8.518552E-3,5.4461175E-1,3.1227472E-1,1.5710784E-2,1.9854015E-2,-7.314441E-2,9.9198437E-1,2.7541602E-1,1.1845795E0,8.365828E-3,5.310256E-1,3.8297478E-2,1.9362066E-2,2.4907181E-2,-2.8000003E-2,1.3771509E-2,-6.0048485E-3,2.4841195E-2,-3.007768E-2,1.5237334E-2,6.1927807E-2,-4.800926E-2,-2.1685641E-3,-9.85068E-4,-1.6594132E-2,2.0895327E-2,-1.1142025E-3],"split_indices":[11,14,11,9,0,5,5,14,9,0,8,0,0,4,10,0,0,0,0,0,0,0,0,0,0,0,0,0,0],"split_type":[0,0,0,0,0,0,0,0,0,0,0,0,0,0,0,0,0,0,0,0,0,0,0,0,0,0,0,0,0],"sum_hessian":[7.304202E2,2.910632E2,4.3935706E2,2.2949397E2,6.1569214E1,2.296684E1,4.163902E2,3.349238E1,1.960016E2,1.376173E1,4.7807484E1,5.1913795E0,1.7775461E1,2.748591E2,1.415311E2,5.486978E0,2.8005402E1,1.0174556E2,9.425604E1,6.260121E0,7.501609E0,3.6216713E1,1.1590769E1,1.2129582E1,5.645879E0,2.1605269E2,5.880643E1,6.868268E1,7.284842E1],"tree_param":{"num_deleted":"0","num_feature":"31","num_nodes":"29","size_leaf_vector":"1"}},{"base_weights":[1.4895898E-2,-1.2061509E-1,4.5136712E-2,-3.9268386E-2,-8.567605E-2,3.9439082E-1,9.447359E-3,3.1767804E-2,-1.2879096E-1,5.1018573E-2,7.3307866E-1,-3.1028175E-1,3.1329054E-2,-2.195985E-3,-2.3063557E-2,1.3362584E-2,-1.8281855E-2,5.769155E-2,9.883879E-3,-5.4102037E-3,-4.866825E-2,2.791925E-3,-1.2506704E-2],"categories":[],"categories_nodes":[],"categories_segments":[],"categories_sizes":[],"default_left":[0,0,0,0,0,0,0,0,0,0,0,0,0,0,0,0,0,0,0,0,0,0,0],"id":52,"left_children":[1,3,5,-1,7,9,11,-1,13,15,17,19,21,-1,-1,-1,-1,-1,-1,-1,-1,-1,-1],"loss_changes":[3.0360134E0,3.0727735E0,7.5415497E0,0E0,4.1097517E0,6.4865627E0,3.8592896E0,0E0,3.4530773E0,2.7042587E0,6.1170845E0,4.6296053E0,3.5728993E0,0E0,0E0,0E0,0E0,0E0,0E0,0E0,0E0,0E0,0E0],"parents":[2147483647,0,0,1,1,2,2,4,4,5,5,6,6,8,8,9,9,10,10,11,11,12,12],"right_children":[2,4,6,-1,8,10,12,-1,14,16,18,20,22,-1,-1,-1,-1,-1,-1,-1,-1,-1,-1],"split_conditions":[5.8873266E-1,-1.6874826E-1,6.658137E-1,-3.9268386E-2,-1.2891668E-1,3.406435E-2,-1.4530984E-1,3.1767804E-2,5.47932E-1,2.8903354E-2,6.56587E-1,-4.5928445E-2,4.039162E-2,-2.195985E-3,-2.3063557E-2,1.3362584E-2,-1.8281855E-2,5.769155E-2,9.883879E-3,-5.4102037E-3,-4.866825E-2,2.791925E-3,-1.2506704E-2],"split_indices":[9,3,9,0,3,4,3,0,9,4,8,7,1,0,0,0,0,0,0,0,0,0,0],"split_type":[0,0,0,0,0,0,0,0,0,0,0,0,0,0,0,0,0,0,0,0,0,0,0],"sum_hessian":[7.385308E2,1.3419702E2,6.043338E2,5.6286006E0,1.2856842E2,5.5097908E1,5.4923584E2,6.4790864E0,1.2208934E2,2.7931116E1,2.7166794E1,3.4336773E1,5.148991E2,9.816351E1,2.3925823E1,1.8624222E1,9.306892E0,1.4565342E1,1.2601452E1,2.7208147E1,7.128625E0,4.7439133E2,4.050777E1],"tree_param":{"num_deleted":"0","num_feature":"31","num_nodes":"23","size_leaf_vector":"1"}},{"base_weights":[1.5550869E-2,-1.5183985E-2,2.5063115E-1,3.7386272E-2,-1.4045307E-1,7.920445E-1,6.991173E-2,2.5876042E-1,-6.778188E-3,-5.322587E-1,-6.0002882E-2,3.7312308E-1,7.158577E-2,-2.9858887E-2,1.7102115E-1,5.6585516E-3,4.928045E-2,-2.3188548E-2,1.1327738E-3,-1.2081123E-2,-4.6151754E-2,1.044445E-3,-2.6798157E-2,-7.536878E-3,4.0364083E-2,2.7181396E-2,-1.0758889E-3],"categories":[],"categories_nodes":[],"categories_segments":[],"categories_sizes":[],"default_left":[0,0,0,0,0,0,0,0,0,0,0,0,0,0,0,0,0,0,0,0,0,0,0,0,0,0,0],"id":53,"left_children":[1,3,5,7,9,11,13,15,17,19,21,23,-1,-1,25,-1,-1,-1,-1,-1,-1,-1,-1,-1,-1,-1,-1],"loss_changes":[5.374016E0,4.3402295E0,8.358921E0,4.5428214E0,6.1082544E0,5.206994E0,4.52493E0,8.065956E0,5.232094E0,3.5314217E0,6.276912E0,3.3737516E0,0E0,0E0,4.1525555E0,0E0,0E0,0E0,0E0,0E0,0E0,0E0,0E0,0E0,0E0,0E0,0E0],"parents":[2147483647,0,0,1,1,2,2,3,3,4,4,5,5,6,6,7,7,8,8,9,9,10,10,11,11,14,14],"right_children":[2,4,6,8,10,12,14,16,18,20,22,24,-1,-1,26,-1,-1,-1,-1,-1,-1,-1,-1,-1,-1,-1,-1],"split_conditions":[6.9894886E-1,4.019638E-2,2.240805E-2,-3.1369522E-2,5.976187E-1,1.209583E-2,2.890387E-2,-1.6974427E-2,-2.5350358E-2,5.5475537E-2,7.974901E-2,4.68892E-2,7.158577E-2,-2.9858887E-2,1.4823874E-2,5.6585516E-3,4.928045E-2,-2.3188548E-2,1.1327738E-3,-1.2081123E-2,-4.6151754E-2,1.044445E-3,-2.6798157E-2,-7.536878E-3,4.0364083E-2,2.7181396E-2,-1.0758889E-3],"split_indices":[0,4,6,2,9,6,6,1,2,4,3,4,0,0,5,0,0,0,0,0,0,0,0,0,0,0,0],"split_type":[0,0,0,0,0,0,0,0,0,0,0,0,0,0,0,0,0,0,0,0,0,0,0,0,0,0,0],"sum_hessian":[7.4226544E2,6.572683E2,8.499713E1,4.6347046E2,1.9379785E2,2.0424644E1,6.457249E1,7.627639E1,3.8719406E2,3.205734E1,1.6174051E2,1.3298645E1,7.1260004E0,7.853198E0,5.6719288E1,6.451049E1,1.1765896E1,2.2536198E1,3.6465787E2,1.9312307E1,1.2745031E1,1.390623E2,2.2678207E1,6.3225684E0,6.9760766E0,1.87024E1,3.8016884E1],"tree_param":{"num_deleted":"0","num_feature":"31","num_nodes":"27","size_leaf_vector":"1"}},{"base_weights":[5.3323526E-4,2.4724385E-1,-2.4120023E-2,3.235032E-1,-1.8804574E-2,-4.1089833E-1,1.1827077E-2,